net
{
	propagationenginegenerator1791944048146838126L = "edu.ucla.belief.approx.BeliefPropagationSettings@4fc5dce6";
	huginenginegenerator3061656038650325130L = "edu.ucla.belief.inference.JoinTreeSettings@4729a8f4";
	recoveryenginegenerator6944530267470113528l = "edu.ucla.util.SettingsImpl@134fac";
	node_size = (130.0 55.0);
}

node Age
{
	states = ("Between16and21" "Between22and64" "Over65" );
	position = (519 -50);
	excludepolicy = "include whole CPT";
	DSLxEXTRA_DEFINITIONxRANKED = "false";
	ismapvariable = "false";
	ID = "Age";
	DSLxPOSITIONxHEIGHT = "30";
	DSLxTYPE = "CPT";
	label = "Age";
	DSLxEXTRA_DEFINITIONxDIAGNOSIS_TYPE = "AUXILIARY";
	DSLxEXTRA_DEFINITIONxMANDATORY = "false";
	DSLxPOSITIONxWIDTH = "70";
	diagnosistype = "AUXILIARY";
}
node CreditWorthiness
{
	states = ("Positive" "Negative" );
	position = (237 -468);
	excludepolicy = "include whole CPT";
	DSLxEXTRA_DEFINITIONxRANKED = "false";
	ismapvariable = "false";
	ID = "CreditWorthiness";
	DSLxPOSITIONxHEIGHT = "30";
	label = "Credit Worthiness";
	DSLxTYPE = "CPT";
	DSLxEXTRA_DEFINITIONxMANDATORY = "false";
	DSLxEXTRA_DEFINITIONxDIAGNOSIS_TYPE = "AUXILIARY";
	DSLxPOSITIONxWIDTH = "100";
	diagnosistype = "AUXILIARY";
}
node DebtIncomeRatio
{
	states = ("Low" "High" );
	position = (285 -123);
	excludepolicy = "include whole CPT";
	DSLxEXTRA_DEFINITIONxRANKED = "false";
	ismapvariable = "false";
	ID = "RatioDebInc";
	DSLxPOSITIONxHEIGHT = "30";
	DSLxTYPE = "CPT";
	label = "Ratio of Debts To Income";
	DSLxEXTRA_DEFINITIONxDIAGNOSIS_TYPE = "AUXILIARY";
	DSLxEXTRA_DEFINITIONxMANDATORY = "false";
	DSLxPOSITIONxWIDTH = "81";
	diagnosistype = "AUXILIARY";
}
node FutureIncome
{
	states = ("Promising" "Not_promising" );
	position = (41 -301);
	excludepolicy = "include whole CPT";
	DSLxEXTRA_DEFINITIONxRANKED = "false";
	ismapvariable = "false";
	ID = "FutureIncome";
	DSLxPOSITIONxHEIGHT = "30";
	label = "Future Income";
	DSLxTYPE = "CPT";
	DSLxEXTRA_DEFINITIONxMANDATORY = "false";
	DSLxEXTRA_DEFINITIONxDIAGNOSIS_TYPE = "AUXILIARY";
	DSLxPOSITIONxWIDTH = "90";
	diagnosistype = "AUXILIARY";
}
node Income
{
	states = ("High" "Medium" "Low" );
	position = (9 -61);
	excludepolicy = "include whole CPT";
	DSLxEXTRA_DEFINITIONxRANKED = "false";
	ismapvariable = "false";
	ID = "Profession";
	DSLxPOSITIONxHEIGHT = "30";
	DSLxTYPE = "CPT";
	label = "Income";
	DSLxEXTRA_DEFINITIONxDIAGNOSIS_TYPE = "AUXILIARY";
	DSLxEXTRA_DEFINITIONxMANDATORY = "false";
	DSLxPOSITIONxWIDTH = "83";
	diagnosistype = "AUXILIARY";
}
node Assets
{
	states = ("High" "Medium" "Low" );
	position = (141 -187);
	excludepolicy = "include whole CPT";
	DSLxEXTRA_DEFINITIONxRANKED = "false";
	ismapvariable = "false";
	ID = "Worth";
	DSLxPOSITIONxHEIGHT = "30";
	label = "Assets";
	DSLxTYPE = "CPT";
	DSLxEXTRA_DEFINITIONxMANDATORY = "false";
	DSLxEXTRA_DEFINITIONxDIAGNOSIS_TYPE = "AUXILIARY";
	DSLxPOSITIONxWIDTH = "70";
	diagnosistype = "AUXILIARY";
}
node Reliability
{
	states = ("Reliable" "Unreliable" );
	position = (715 -273);
	excludepolicy = "include whole CPT";
	DSLxEXTRA_DEFINITIONxRANKED = "false";
	ismapvariable = "false";
	ID = "Reliability";
	DSLxPOSITIONxHEIGHT = "30";
	DSLxTYPE = "CPT";
	label = "Reliability";
	DSLxEXTRA_DEFINITIONxDIAGNOSIS_TYPE = "AUXILIARY";
	DSLxEXTRA_DEFINITIONxMANDATORY = "false";
	DSLxPOSITIONxWIDTH = "70";
	diagnosistype = "AUXILIARY";
}
node PaymentHistory
{
	states = ("Excellent" "Acceptable" "Unacceptable" );
	position = (445 -290);
	excludepolicy = "include whole CPT";
	DSLxEXTRA_DEFINITIONxRANKED = "false";
	ismapvariable = "false";
	ID = "PaymentHistory";
	DSLxPOSITIONxHEIGHT = "30";
	DSLxTYPE = "CPT";
	label = "Payment History";
	DSLxEXTRA_DEFINITIONxDIAGNOSIS_TYPE = "AUXILIARY";
	DSLxEXTRA_DEFINITIONxMANDATORY = "false";
	DSLxPOSITIONxWIDTH = "93";
	diagnosistype = "AUXILIARY";
}
potential ( Age | )
{
	data = (	0.3333333333333333	0.3333333333333333	0.3333333333333333	);
}
potential ( CreditWorthiness | DebtIncomeRatio FutureIncome Reliability )
{
	data = ((((	0.95	0.05	)
		(	0.85	0.15	))
		((	0.75	0.25	)
		(	0.65	0.35	)))
		(((	0.65	0.35	)
		(	0.55	0.45	))
		((	0.45	0.55	)
		(	0.35	0.65	))));
}
potential ( DebtIncomeRatio | )
{
	data = (	0.5	0.5	);
}
potential ( FutureIncome | Assets Income )
{
	data = (((	0.95	0.05	)
		(	0.85	0.15	)
		(	0.75	0.25	))
		((	0.85	0.15	)
		(	0.75	0.25	)
		(	0.65	0.35	))
		((	0.65	0.35	)
		(	0.55	0.45	)
		(	0.45	0.55	)));
}
potential ( Income | )
{
	data = (	0.3333333333333333	0.3333333333333333	0.3333333333333333	);
}
potential ( Assets | Income )
{
	data = ((	0.3333333333333333	0.3333333333333333	0.3333333333333333	)
		(	0.3333333333333333	0.3333333333333333	0.3333333333333333	)
		(	0.3333333333333333	0.3333333333333333	0.3333333333333333	));
}
potential ( Reliability | Age PaymentHistory )
{
	data = (((	0.7	0.3	)
		(	0.6	0.4	)
		(	0.5	0.5	))
		((	0.85	0.15	)
		(	0.75	0.25	)
		(	0.55	0.45	))
		((	0.95	0.05	)
		(	0.85	0.15	)
		(	0.55	0.45	)));
}
potential ( PaymentHistory | Age DebtIncomeRatio )
{
	data = (((	0.55	0.35	0.1	)
		(	0.45	0.25	0.3	))
		((	0.3333333333333333	0.3333333333333333	0.3333333333333333	)
		(	0.3333333333333333	0.3333333333333333	0.3333333333333333	))
		((	0.3333333333333333	0.3333333333333333	0.3333333333333333	)
		(	0.3333333333333333	0.3333333333333333	0.3333333333333333	)));
}
