%%%%%%%%%%%%%%%%%%%%%%%%%%%%  B A R L E Y  %%%%%%%%%%%%%%%%%%%%%%%%%%%%%%%%%
%% A preliminary model for barley developed by Kristian Kristensen 
%% <kk@@dina.sp.dk>.  Scientific usage of this model is permitted only
%% by written accept from Kristian.
%% 

net
{
    node_size = (100 40);
    label = "Main modul Jan 96";
    name = "main9601";
}

node protein
{
    label = "Protein";
    position = (1003 150);
    states = ("<9" "9.0-9.5" "9.5-10.0" "10-0-10.5" "10.5-11.0" "11.0-11.5" "11.5-12.0" ">12.0");
}

node udb
{
    label = "Yield";
    position = (999 363);
    states = ("<30" "30-40" "40-50" "50-55" "55-60" "60-65" "65-70" "70-80" ">80");
}

node ksort
{
    label = "Kernel grade";
    position = (1006 235);
    states = ("<85" "85-90" "90-95" "95-98" ">98");
}

node spndx
{
    label = "Germ. index";
    position = (970 486);
    states = ("<7" "7-8" "8-9" "9-10");
}

node srtprot
{
    label = "V. protein";
    position = (856 147);
    states = ("1" "2" "3" "4" "5" "6" "7" "8" "9");
}

node nprot
{
    label = "N for Protein";
    position = (548 404);
    states = ("<40" "40-60" "60-80" "80-100" "100-120" "120-140" "140-160" ">160");
}

node tkv
{
    label = "Kernel weight";
    position = (1002 301);
    states = ("<35" "35-40" "40-42.5" "42.5-45" "45-47.5" "47.5-50" "50-55" ">55");
}

node slt22
{
    label = "<2.2";
    position = (548 207);
    states = ("0-1" "1-2" "2-3" "3-5");
}

node s2225
{
    label = "2.2-2.5";
    position = (548 147);
    states = ("0-1" "1-5" "5-10" "10-15");
}

node frspdag
{
    label = "Days 50% germ.";
    position = (244 64);
    states = ("<15" "15-17" "17-19" "19-21" "21-23" "23-25" "25-27" ">27");
}

node tkvs
{
    label = "Kernel weight ";
    position = (113 215);
    states = ("30-35" "35-40" "40-42" "42-44" "44-46" "46-48" "48-50" "50-55" "55-60");
}

node saamng
{
    label = "Amounth sown";
    position = (112 288);
    states = ("50-70" "70-90" "90-110" "110-130" "130-150" "150-170" "170-190" "190-210" "210-230" "230-250");
}

node jordinf
{
    label = "Soil influence";
    position = (369 67);
    states = ("<.80" ".80-.85" ".94-.90" "90-.93" "93-.95" ".95-.97" ".97-.98" ".98-.99" ".99-1.00");
}

node partigerm
{
    label = "Germination %";
    position = (116 144);
    states = ("<80" "80-85" "85-90" "90-93" "93-95" "95-97" "97-98" "98-99" "99-100");
}

node markgrm
{
    label = "Field germination %";
    position = (369 230);
    states = ("<75" "75-80" "80-85" "85-90" "90-93" "94-95" "95-97" "97-98" "98.-99" "99-100");
}

node saakern
{
    label = "Seed rate sown";
    position = (244 258);
    states = ("<175" "175-225" "225-275" "275-325" "325-375" "375-424" ">450");
}

node sorttkv
{
    label = "V. weight";
    position = (685 221);
    states = ("1" "2" "3" "4" "5" "6" "7" "8" "9");
}

node antplnt
{
    label = "Plants";
    position = (424 329);
    states = ("<175" "175-225" "225-275" "275-325" "325-375" "375-425" ">425");
}

node aks_m2
{
    label = "Ears/m2";
    position = (747 346);
    states = ("<350" "350-450" "450-550" "550-650" "650-750" "750-950" "950-1150" ">1150");
}

node ntilg
{
    label = "Availabel N";
    position = (634 463);
    states = ("<75" "75-90" "90-105" "105-120" "120-135" "135-150" "150-165" "165-180" "180-195" ">195");
}

node sort
{
    label = "Variety";
    position = (682 110);
    states = ("Abelone" "Alexis" "Alis" "Amber" "Ariel" "Baracuda" "Baronesse" "Bartok" "Blenheim" "Brewster" "Caminant" "Canut" "Caruso" "Chariot" "Collie" "Cooper" "Cork" "Delibes" "Derkado" "Digger" "Etna" "Evelyn" "Give" "Goldie" "Gota" "Heron" "Jarek" "Jill" "Korinna" "Krona" "Lamba" "Lenka" "Limbo" "Loma" "Lysimax" "Maresi" "Marielle" "Marina" "Maud" "Meltan" "Mentor" "Mie" "Miralix" "Nevada" "Optic" "Peel" "Polygena" "Portia" "Princesse" "Prisma" "Ragtime" "Reggae" "Rima" "Saxo" "Segu" "Sehila" "Selim" "Semal" "Senor" "Shamu" "Teal" "Texane" "Tofta" "Trebon" "Vintage" "Nrja" "andre");
}

node srtsize
{
    label = "V. grade";
    position = (855 210);
    states = ("<-1" "-1" "0" "1" "2" "3" ">3");
}

node aks_vgt
{
    label = "Ear weight";
    position = (873 409);
    states = ("<550" "550-600" "600-650" "650-700" "700-750" "750-850" "850-950" "950-1050" ">1050");
}

node keraks
{
    label = "Kernels/ear";
    position = (628 301);
    states = ("<13" "13-15" "15-17" "17-19" "19-21" "21-23" ">23");
}

node s2528
{
    label = "2.5-2.8";
    position = (549 82);
    states = ("0-5" "5-10" "10-15" "15-20" "20-25" "25-30" "30-35" "35-40" "40-45" "45-50" "50-55" "55-60" "60-65" "65-70" "70-75" "75-80" "80-85" "85-90" "90-95" "95-100");
}

node rokap
{
    label = "Field capacity";
    position = (805 685);
    states = ("37.5-62.5" "62.5-87.5" "87.5-112.5" "112.5-137.5" "137.5-162.5" "162.5-187.5" "187.5-212.5");
}

node dgv5980
{
    label = "Days 59-80";
    position = (902 605);
    states = ("0-5" "5-10" "10-15" "15-25" "25-35" ">35");
}

node dgv1059
{
    label = "Days 10-59";
    position = (710 611);
    states = ("<25" "25-40" "41-50" "51-60" "61-70" ">70");
}

node bgbyg
{
    label = "Betaglucan";
    position = (966 545);
    states = ("<3.0" "3.0-3.5" "3.5-4.0" "4.0-4.5" "4.5-5.0" ">5.0");
}

node nedbarea
{
    label = "Precipitation";
    position = (111 545);
    states = ("1 (<375)" "2 (375-500)" "3 (>500)");
}

node komm
{
    label = "Location";
    position = (25 471);
    states = ("state0" "state1" "state2" "state3" "state4");
}

node jordtype
{
    label = "Soil type";
    position = (111 599);
    states = ("Jb 1 " "JB 2" "JB 3" "JB 4" "JB 5" "JB 6" "Jb 7" "JB 8" "JB 9");
}

node pesticid
{
    label = "Pesticides";
    position = (130 702);
    states = ("+" "-");
}

node potnmin
{
    label = "Potential N";
    position = (261 614);
    states = ("0-15" "15-30" "30-45" "45-60" "60-75" "75-90" "90-105" ">105");
}

node aar_mod
{
    label = "Yearly mod.";
    position = (120 412);
    states = ("-25" "-20" "-15" "-10" "-5" "0" "5" "10" "15" "20" "25");
}

node nmin
{
    label = "Soil N";
    position = (139 474);
    states = ("0-15" "15-30" "30-45" "45-60" "60-75" ">75");
}

node mod_nmin
{
    label = "Soil N";
    position = (258 446);
    states = ("0-15" "15-30" "30-45" "45-60" "60-75" ">75");
}

node exptgens
{
    label = "Expected yield";
    position = (377 696);
    states = ("<30" "30-40" "40-50" "50-60" "60-70" ">70");
}

node forfrugt
{
    label = "Prev. crop";
    position = (110 651);
    states = ("Cereals" "Cer.rotation" "Beets" "Clovergrass" "Other");
}

node jordn
{
    label = "Soil N";
    position = (261 520);
    states = ("0-15" "15-30" "30-45" "45-60" "60-75" "75-90" "90-105" "105-120" ">120");
}

node nopt
{
    label = "N needed";
    position = (384 616);
    states = ("<120" "120-135" "135-150" "150-165" "165-180" ">180");
}

node ngodnn
{
    label = "Opt. N fert.";
    position = (474 565);
    states = ("<45" "45-60" "60-75" "75-90" "90-105" "105-120" "120-135" "135-150" "150-165" ">165");
}

node ngodnt
{
    label = "Allow. N fert.";
    position = (358 565);
    states = ("<45" "45-60" "60-75" "75-90" "90-105" "105-120" "120-135" "135-150" "150-165" ">165");
}

node saatid
{
    label = "Sowing time";
    position = (116 79);
    states = ("<26/3" "26/3-10/4" "11/4-20/4" "21/4-26/4" ">26/4");
}

node dg25
{
    label = "Days to 25 mm";
    position = (528 616);
    states = ("<22.5" "11.5-27.5" "27.5-32.5" "32.5-37.5" "37.5-47.5" "47.5-57.5" ">57.5");
}

node nplac
{
    label = "Placement of N";
    position = (387 427);
    states = ("Top-dressed" "worked in solil" "Placed");
}

node ngodn
{
    label = "Applied N";
    position = (389 477);
    states = ("<45" "45-60" "60-75" "75-90" "90-105" "105-120" "120-135" "135-150" "150-165" ">165");
}

node ngtilg
{
    label = "Avail. N fert.";
    position = (517 460);
    states = ("<45" "45-60" "60-75" "75-90" "90-105" "105-120" "120-135" "135-150" "150-165" ">165");
}

potential (protein | nprot dgv1059 srtprot ksort)
{
 data = ((((( 0.4975 0.1833 0.1472 0.0946 0.0487 0.02 0.0066 0.0022 )	%  <40  <25  1  <85
	    ( 0.6762 0.1485 0.096 0.0497 0.0206 0.0068 0.0018 0.0005 )	%  <40  <25  1  85-90
	    ( 0.7781 0.1148 0.0642 0.0288 0.0103 0.003 0.0007 0.0001 )	%  <40  <25  1  90-95
	    ( 0.8444 0.0873 0.0435 0.0174 0.0056 0.0014 0.0003 0.0001 )	%  <40  <25  1  95-98
	    ( 0.8785 0.0714 0.0331 0.0123 0.0037 0.0009 0.0002 0.0001 ))	%  <40  <25  1  >98
	   (( 0.3521 0.1864 0.1781 0.1363 0.0835 0.0409 0.0161 0.0066 )	%  <40  <25  2  <85
	    ( 0.5333 0.1789 0.1377 0.0849 0.0419 0.0165 0.0052 0.0016 )	%  <40  <25  2  85-90
	    ( 0.6527 0.1548 0.1032 0.055 0.0235 0.008 0.0022 0.0006 )	%  <40  <25  2  90-95
	    ( 0.7388 0.129 0.0766 0.0364 0.0138 0.0042 0.001 0.0002 )	%  <40  <25  2  95-98
	    ( 0.7864 0.1116 0.0616 0.0273 0.0096 0.0027 0.0006 0.0001 ))	%  <40  <25  2  >98
	   (( 0.2257 0.1652 0.1881 0.1713 0.1249 0.0729 0.0341 0.0177 )	%  <40  <25  3  <85
	    ( 0.386 0.1879 0.1723 0.1264 0.0742 0.0349 0.0131 0.0051 )	%  <40  <25  3  85-90
	    ( 0.5076 0.1822 0.1445 0.0918 0.0467 0.019 0.0062 0.002 )	%  <40  <25  3  90-95
	    ( 0.605 0.1661 0.1174 0.0664 0.0301 0.0109 0.0032 0.0009 )	%  <40  <25  3  95-98
	    ( 0.663 0.1521 0.1 0.0527 0.0222 0.0075 0.002 0.0005 ))	%  <40  <25  3  >98
	   (( 0.13 0.1278 0.1732 0.1878 0.1631 0.1133 0.0631 0.0417 )	%  <40  <25  4  <85
	    ( 0.2537 0.1722 0.188 0.1642 0.1148 0.0643 0.0288 0.0141 )	%  <40  <25  4  85-90
	    ( 0.3616 0.187 0.1766 0.1335 0.0808 0.0392 0.0152 0.0062 )	%  <40  <25  4  90-95
	    ( 0.4574 0.1866 0.1571 0.1058 0.0571 0.0246 0.0085 0.003 )	%  <40  <25  4  95-98
	    ( 0.5189 0.1808 0.1416 0.0887 0.0445 0.0179 0.0057 0.0018 ))	%  <40  <25  4  >98
	   (( 0.0669 0.0862 0.1391 0.1796 0.1856 0.1536 0.1018 0.0873 )	%  <40  <25  5  <85
	    ( 0.15 0.1377 0.1789 0.186 0.1549 0.1032 0.0551 0.0343 )	%  <40  <25  5  85-90
	    ( 0.2335 0.1673 0.1882 0.1694 0.1221 0.0704 0.0325 0.0166 )	%  <40  <25  5  90-95
	    ( 0.3155 0.1828 0.1832 0.147 0.0944 0.0485 0.0199 0.0087 )	%  <40  <25  5  95-98
	    ( 0.3722 0.1875 0.1748 0.1304 0.0779 0.0373 0.0143 0.0057 ))	%  <40  <25  5  >98
	   (( 0.0305 0.0507 0.0974 0.1497 0.1843 0.1816 0.1432 0.1625 )	%  <40  <25  6  <85
	    ( 0.0793 0.096 0.1484 0.1838 0.1822 0.1446 0.0918 0.0739 )	%  <40  <25  6  85-90
	    ( 0.1355 0.1306 0.1749 0.1875 0.1608 0.1105 0.0607 0.0395 )	%  <40  <25  6  90-95
	    ( 0.1966 0.1563 0.1864 0.178 0.1361 0.0833 0.0408 0.0226 )	%  <40  <25  6  95-98
	    ( 0.2422 0.1695 0.1882 0.1672 0.1189 0.0677 0.0309 0.0155 ))	%  <40  <25  6  >98
	   (( 0.0123 0.026 0.0595 0.1089 0.1596 0.1872 0.1758 0.2707 )	%  <40  <25  7  <85
	    ( 0.0373 0.0583 0.1075 0.1584 0.1869 0.1766 0.1336 0.1414 )	%  <40  <25  7  85-90
	    ( 0.0702 0.0889 0.1418 0.1809 0.1848 0.1511 0.0989 0.0833 )	%  <40  <25  7  90-95
	    ( 0.1099 0.1165 0.1654 0.1881 0.1712 0.1247 0.0727 0.0515 )	%  <40  <25  7  95-98
	    ( 0.1417 0.1337 0.1767 0.1869 0.1583 0.1073 0.0582 0.0372 ))	%  <40  <25  7  >98
	   (( 0.0044 0.0116 0.0317 0.0691 0.1205 0.1683 0.1882 0.4061 )	%  <40  <25  8  <85
	    ( 0.0155 0.0309 0.0678 0.1191 0.1673 0.1882 0.1694 0.2417 )	%  <40  <25  8  85-90
	    ( 0.0323 0.0528 0.1002 0.1523 0.1852 0.1803 0.1405 0.1563 )	%  <40  <25  8  90-95
	    ( 0.0548 0.0757 0.128 0.1733 0.1878 0.1629 0.1131 0.1044 )	%  <40  <25  8  95-98
	    ( 0.0741 0.092 0.1447 0.1823 0.1838 0.1483 0.0958 0.0791 ))	%  <40  <25  8  >98
	   (( 0.0014 0.0045 0.0147 0.0382 0.0794 0.132 0.1757 0.554 )	%  <40  <25  9  <85
	    ( 0.0057 0.0143 0.0373 0.0781 0.1306 0.1749 0.1875 0.3717 )	%  <40  <25  9  85-90
	    ( 0.0132 0.0273 0.0618 0.1118 0.1619 0.1876 0.1741 0.2623 )	%  <40  <25  9  90-95
	    ( 0.0242 0.0429 0.0864 0.1393 0.1797 0.1856 0.1534 0.1885 )	%  <40  <25  9  95-98
	    ( 0.0344 0.0552 0.1034 0.155 0.1861 0.1788 0.1375 0.1497 )))	%  <40  <25  9  >98
	  ((( 0.3899 0.188 0.1715 0.1253 0.0732 0.0343 0.0128 0.005 )	%  <40  25-40  1  <85
	    ( 0.5274 0.1797 0.1393 0.0865 0.0429 0.0171 0.0054 0.0017 )	%  <40  25-40  1  85-90
	    ( 0.6182 0.1632 0.1135 0.0632 0.0282 0.01 0.0029 0.0008 )	%  <40  25-40  1  90-95
	    ( 0.6867 0.1454 0.0928 0.0473 0.0193 0.0063 0.0017 0.0004 )	%  <40  25-40  1  95-98
	    ( 0.7266 0.133 0.0804 0.0389 0.015 0.0047 0.0012 0.0003 ))	%  <40  25-40  1  >98
	   (( 0.2569 0.173 0.1878 0.1633 0.1137 0.0633 0.0282 0.0138 )	%  <40  25-40  2  <85
	    ( 0.3803 0.1878 0.1733 0.1281 0.0757 0.0359 0.0136 0.0053 )	%  <40  25-40  2  85-90
	    ( 0.4711 0.1857 0.1538 0.1019 0.0541 0.023 0.0078 0.0027 )	%  <40  25-40  2  90-95
	    ( 0.5451 0.1771 0.1345 0.0817 0.0398 0.0155 0.0048 0.0015 )	%  <40  25-40  2  95-98
	    ( 0.5907 0.1691 0.1216 0.07 0.0323 0.0119 0.0035 0.001 ))	%  <40  25-40  2  >98
	   (( 0.1524 0.1387 0.1794 0.1857 0.1539 0.1021 0.0542 0.0336 )	%  <40  25-40  3  <85
	    ( 0.2489 0.1711 0.1881 0.1654 0.1165 0.0657 0.0296 0.0147 )	%  <40  25-40  3  85-90
	    ( 0.3279 0.1842 0.1817 0.1434 0.0906 0.0458 0.0185 0.0079 )	%  <40  25-40  3  90-95
	    ( 0.3974 0.1881 0.1701 0.1231 0.0713 0.0331 0.0123 0.0047 )	%  <40  25-40  3  95-98
	    ( 0.4428 0.1874 0.1604 0.11 0.0603 0.0265 0.0093 0.0033 ))	%  <40  25-40  3  >98
	   (( 0.0808 0.0971 0.1495 0.1842 0.1817 0.1435 0.0907 0.0725 )	%  <40  25-40  4  <85
	    ( 0.1465 0.136 0.178 0.1864 0.1563 0.1049 0.0564 0.0355 )	%  <40  25-40  4  85-90
	    ( 0.2063 0.1595 0.1872 0.1759 0.1323 0.0797 0.0384 0.0208 )	%  <40  25-40  4  90-95
	    ( 0.2632 0.1743 0.1876 0.1616 0.1115 0.0615 0.0272 0.0131 )	%  <40  25-40  4  95-98
	    ( 0.3025 0.1811 0.1846 0.1507 0.0984 0.0515 0.0215 0.0096 ))	%  <40  25-40  4  >98
	   (( 0.0381 0.0592 0.1086 0.1593 0.1872 0.176 0.1325 0.1391 )	%  <40  25-40  5  <85
	    ( 0.0771 0.0943 0.1469 0.1832 0.1829 0.1461 0.0935 0.076 )	%  <40  25-40  5  85-90
	    ( 0.1165 0.1204 0.1682 0.1882 0.1685 0.1208 0.0693 0.048 )	%  <40  25-40  5  90-95
	    ( 0.157 0.1408 0.1805 0.1851 0.152 0.0999 0.0526 0.0321 )	%  <40  25-40  5  95-98
	    ( 0.1866 0.1527 0.1853 0.1801 0.1401 0.0872 0.0435 0.0246 ))	%  <40  25-40  5  >98
	   (( 0.0159 0.0315 0.0688 0.1202 0.1681 0.1882 0.1687 0.2386 )	%  <40  25-40  6  <85
	    ( 0.0361 0.057 0.1058 0.157 0.1866 0.1775 0.1352 0.1448 )	%  <40  25-40  6  85-90
	    ( 0.0587 0.0792 0.1319 0.1756 0.1873 0.1598 0.1092 0.0983 )	%  <40  25-40  6  90-95
	    ( 0.0838 0.0992 0.1514 0.1849 0.1808 0.1415 0.0886 0.0698 )	%  <40  25-40  6  95-98
	    ( 0.1031 0.1123 0.1623 0.1877 0.1738 0.1288 0.0764 0.0556 ))	%  <40  25-40  6  >98
	   (( 0.0059 0.0146 0.038 0.0791 0.1317 0.1755 0.1873 0.3679 )	%  <40  25-40  7  <85
	    ( 0.015 0.0301 0.0664 0.1174 0.1661 0.1881 0.1706 0.2464 )	%  <40  25-40  7  85-90
	    ( 0.0262 0.0455 0.0901 0.1429 0.1815 0.1844 0.15 0.1793 )	%  <40  25-40  7  90-95
	    ( 0.0398 0.061 0.1108 0.1611 0.1875 0.1747 0.1303 0.1349 )	%  <40  25-40  7  95-98
	    ( 0.0508 0.072 0.1239 0.1706 0.1881 0.166 0.1173 0.1113 ))	%  <40  25-40  7  >98
	   (( 0.0019 0.0059 0.0183 0.0454 0.09 0.1428 0.1814 0.5143 )	%  <40  25-40  8  <85
	    ( 0.0055 0.0138 0.0364 0.0765 0.1289 0.1739 0.1877 0.3774 )	%  <40  25-40  8  85-90
	    ( 0.0104 0.0228 0.0537 0.1015 0.1534 0.1856 0.1797 0.293 )	%  <40  25-40  8  90-95
	    ( 0.0167 0.0327 0.0707 0.1224 0.1696 0.1882 0.1671 0.2326 )	%  <40  25-40  8  95-98
	    ( 0.0222 0.0403 0.0825 0.1353 0.1776 0.1866 0.1569 0.1986 ))	%  <40  25-40  8  >98
	   (( 0.0005 0.0021 0.0077 0.0227 0.0536 0.1013 0.1532 0.6588 )	%  <40  25-40  9  <85
	    ( 0.0018 0.0055 0.0174 0.0435 0.0873 0.1401 0.1801 0.5243 )	%  <40  25-40  9  85-90
	    ( 0.0036 0.0099 0.0279 0.0628 0.113 0.1628 0.1878 0.432 )	%  <40  25-40  9  90-95
	    ( 0.0062 0.0153 0.0394 0.0811 0.1338 0.1768 0.1869 0.3605 )	%  <40  25-40  9  95-98
	    ( 0.0086 0.0196 0.0479 0.0936 0.1462 0.1829 0.1832 0.3181 )))	%  <40  25-40  9  >98
	  ((( 0.3174 0.1831 0.183 0.1464 0.0937 0.0481 0.0197 0.0086 )	%  <40  41-50  1  <85
	    ( 0.4173 0.1881 0.166 0.1173 0.0663 0.03 0.0109 0.004 )	%  <40  41-50  1  85-90
	    ( 0.4875 0.1843 0.1497 0.0973 0.0507 0.0211 0.007 0.0024 )	%  <40  41-50  1  90-95
	    ( 0.544 0.1773 0.1348 0.082 0.0399 0.0156 0.0049 0.0015 )	%  <40  41-50  1  95-98
	    ( 0.579 0.1713 0.125 0.0729 0.0341 0.0127 0.0038 0.0011 ))	%  <40  41-50  1  >98
	   (( 0.1982 0.1568 0.1865 0.1777 0.1355 0.0827 0.0404 0.0223 )	%  <40  41-50  2  <85
	    ( 0.2803 0.1776 0.1866 0.1569 0.1057 0.057 0.0246 0.0115 )	%  <40  41-50  2  85-90
	    ( 0.3429 0.1856 0.1795 0.139 0.0861 0.0427 0.017 0.0071 )	%  <40  41-50  2  90-95
	    ( 0.3964 0.1881 0.1703 0.1234 0.0715 0.0332 0.0123 0.0047 )	%  <40  41-50  2  95-98
	    ( 0.4309 0.1878 0.1631 0.1134 0.0631 0.0281 0.01 0.0036 ))	%  <40  41-50  2  >98
	   (( 0.1109 0.1171 0.1659 0.1881 0.1708 0.1241 0.0722 0.051 )	%  <40  41-50  3  <85
	    ( 0.1697 0.1462 0.1829 0.1832 0.1468 0.0942 0.0484 0.0286 )	%  <40  41-50  3  85-90
	    ( 0.2183 0.1631 0.1878 0.1731 0.1277 0.0754 0.0357 0.0188 )	%  <40  41-50  3  90-95
	    ( 0.2624 0.1741 0.1876 0.1618 0.1118 0.0618 0.0273 0.0132 )	%  <40  41-50  3  95-98
	    ( 0.2921 0.1796 0.1856 0.1536 0.1018 0.054 0.0229 0.0104 ))	%  <40  41-50  3  >98
	   (( 0.0554 0.0763 0.1286 0.1737 0.1877 0.1624 0.1125 0.1034 )	%  <40  41-50  4  <85
	    ( 0.092 0.105 0.1564 0.1864 0.1779 0.136 0.0831 0.0632 )	%  <40  41-50  4  85-90
	    ( 0.1248 0.125 0.1714 0.1881 0.1652 0.1162 0.0654 0.044 )	%  <40  41-50  4  90-95
	    ( 0.1564 0.1406 0.1803 0.1852 0.1522 0.1002 0.0528 0.0323 )	%  <40  41-50  4  95-98
	    ( 0.1786 0.1497 0.1843 0.1816 0.1432 0.0904 0.0457 0.0264 ))	%  <40  41-50  4  >98
	   (( 0.0245 0.0433 0.087 0.1399 0.18 0.1854 0.1529 0.187 )	%  <40  41-50  5  <85
	    ( 0.0444 0.0657 0.1166 0.1655 0.1881 0.1711 0.1246 0.124 )	%  <40  41-50  5  85-90
	    ( 0.0637 0.0835 0.1364 0.1782 0.1863 0.156 0.1046 0.0914 )	%  <40  41-50  5  90-95
	    ( 0.0834 0.099 0.1511 0.1848 0.1809 0.1417 0.0889 0.0702 )	%  <40  41-50  5  95-98
	    ( 0.0978 0.1089 0.1596 0.1872 0.1758 0.1321 0.0795 0.059 ))	%  <40  41-50  5  >98
	   (( 0.0096 0.0215 0.0513 0.0982 0.1505 0.1846 0.1812 0.3031 )	%  <40  41-50  6  <85
	    ( 0.019 0.0359 0.0758 0.1282 0.1734 0.1878 0.1628 0.2172 )	%  <40  41-50  6  85-90
	    ( 0.0288 0.0487 0.0946 0.1472 0.1833 0.1827 0.1458 0.1687 )	%  <40  41-50  6  90-95
	    ( 0.0395 0.0608 0.1105 0.1609 0.1875 0.1749 0.1306 0.1354 )	%  <40  41-50  6  95-98
	    ( 0.0477 0.0691 0.1205 0.1683 0.1882 0.1684 0.1207 0.1171 ))	%  <40  41-50  6  >98
	   (( 0.0033 0.0093 0.0264 0.0602 0.1098 0.1603 0.1873 0.4434 )	%  <40  41-50  7  <85
	    ( 0.0072 0.0171 0.043 0.0865 0.1394 0.1797 0.1855 0.3415 )	%  <40  41-50  7  85-90
	    ( 0.0116 0.0248 0.0573 0.1061 0.1573 0.1867 0.1774 0.279 )	%  <40  41-50  7  90-95
	    ( 0.0166 0.0325 0.0705 0.1221 0.1694 0.1882 0.1673 0.2334 )	%  <40  41-50  7  95-98
	    ( 0.0206 0.0382 0.0794 0.132 0.1757 0.1872 0.1597 0.2071 ))	%  <40  41-50  7  >98
	   (( 0.001 0.0035 0.0118 0.0321 0.0698 0.1214 0.1689 0.5914 )	%  <40  41-50  8  <85
	    ( 0.0024 0.0071 0.0213 0.051 0.0978 0.1501 0.1844 0.486 )	%  <40  41-50  8  85-90
	    ( 0.0041 0.011 0.0302 0.0667 0.1177 0.1663 0.1881 0.4159 )	%  <40  41-50  8  90-95
	    ( 0.0062 0.0152 0.0392 0.0808 0.1336 0.1766 0.1869 0.3615 )	%  <40  41-50  8  95-98
	    ( 0.0079 0.0184 0.0456 0.0903 0.1431 0.1815 0.1844 0.3288 ))	%  <40  41-50  8  >98
	   (( 0.0003 0.0011 0.0046 0.015 0.0387 0.0802 0.1328 0.7272 )	%  <40  41-50  9  <85
	    ( 0.0007 0.0026 0.0092 0.0262 0.0598 0.1093 0.1599 0.6324 )	%  <40  41-50  9  85-90
	    ( 0.0013 0.0042 0.0139 0.0366 0.0768 0.1292 0.1741 0.5639 )	%  <40  41-50  9  90-95
	    ( 0.002 0.0062 0.019 0.0467 0.0918 0.1446 0.1822 0.5075 )	%  <40  41-50  9  95-98
	    ( 0.0027 0.0078 0.0228 0.0539 0.1016 0.1535 0.1856 0.4722 )))	%  <40  41-50  9  >98
	  ((( 0.264 0.1745 0.1876 0.1614 0.1112 0.0613 0.0271 0.013 )	%  <40  51-60  1  <85
	    ( 0.3334 0.1848 0.1809 0.1418 0.0889 0.0447 0.0179 0.0076 )	%  <40  51-60  1  85-90
	    ( 0.3832 0.1879 0.1728 0.1272 0.075 0.0354 0.0134 0.0052 )	%  <40  51-60  1  90-95
	    ( 0.4246 0.188 0.1645 0.1152 0.0646 0.029 0.0104 0.0038 )	%  <40  51-60  1  95-98
	    ( 0.4509 0.187 0.1586 0.1076 0.0585 0.0254 0.0089 0.0031 ))	%  <40  51-60  1  >98
	   (( 0.1576 0.1411 0.1806 0.185 0.1518 0.0996 0.0524 0.032 )	%  <40  51-60  2  <85
	    ( 0.2107 0.1608 0.1875 0.1749 0.1306 0.0781 0.0374 0.02 )	%  <40  51-60  2  85-90
	    ( 0.2513 0.1717 0.188 0.1648 0.1156 0.0649 0.0292 0.0144 )	%  <40  51-60  2  90-95
	    ( 0.2866 0.1787 0.1861 0.1552 0.1036 0.0553 0.0237 0.0109 )	%  <40  51-60  2  95-98
	    ( 0.3097 0.1821 0.1839 0.1486 0.0961 0.0498 0.0206 0.0091 ))	%  <40  51-60  2  >98
	   (( 0.0841 0.0995 0.1516 0.185 0.1806 0.1412 0.0884 0.0695 )	%  <40  51-60  3  <85
	    ( 0.1195 0.1221 0.1694 0.1882 0.1673 0.1191 0.0679 0.0465 )	%  <40  51-60  3  85-90
	    ( 0.1483 0.1369 0.1784 0.1862 0.1556 0.104 0.0557 0.0349 )	%  <40  51-60  3  90-95
	    ( 0.1744 0.1481 0.1837 0.1823 0.1449 0.0922 0.0469 0.0274 )	%  <40  51-60  3  95-98
	    ( 0.1922 0.1547 0.186 0.1789 0.1378 0.085 0.0419 0.0235 ))	%  <40  51-60  3  >98
	   (( 0.04 0.0612 0.1111 0.1613 0.1875 0.1745 0.13 0.1344 )	%  <40  51-60  4  <85
	    ( 0.0605 0.0808 0.1335 0.1766 0.187 0.1584 0.1075 0.0957 )	%  <40  51-60  4  85-90
	    ( 0.0782 0.0952 0.1477 0.1835 0.1825 0.1453 0.0926 0.0749 )	%  <40  51-60  4  90-95
	    ( 0.0951 0.1071 0.1581 0.1869 0.1768 0.1339 0.0812 0.0609 )	%  <40  51-60  4  95-98
	    ( 0.1069 0.1146 0.164 0.1879 0.1724 0.1265 0.0744 0.0533 ))	%  <40  51-60  4  >98
	   (( 0.0168 0.0328 0.0709 0.1227 0.1698 0.1882 0.1669 0.2319 )	%  <40  51-60  5  <85
	    ( 0.0272 0.0467 0.0918 0.1445 0.1822 0.1838 0.1485 0.1754 )	%  <40  51-60  5  85-90
	    ( 0.0367 0.0577 0.1066 0.1577 0.1868 0.1771 0.1344 0.143 )	%  <40  51-60  5  90-95
	    ( 0.0461 0.0675 0.1187 0.167 0.1882 0.1697 0.1225 0.1203 )	%  <40  51-60  5  95-98
	    ( 0.053 0.0741 0.1262 0.1721 0.188 0.1643 0.1149 0.1074 ))	%  <40  51-60  5  >98
	   (( 0.0062 0.0154 0.0395 0.0814 0.1341 0.1769 0.1868 0.3597 )	%  <40  51-60  6  <85
	    ( 0.0108 0.0235 0.055 0.1032 0.1548 0.186 0.1789 0.2878 )	%  <40  51-60  6  85-90
	    ( 0.0152 0.0305 0.0671 0.1182 0.1667 0.1882 0.17 0.244 )	%  <40  51-60  6  90-95
	    ( 0.0199 0.0371 0.0777 0.1302 0.1747 0.1875 0.1612 0.2118 )	%  <40  51-60  6  95-98
	    ( 0.0233 0.0417 0.0847 0.1375 0.1788 0.186 0.155 0.1929 ))	%  <40  51-60  6  >98
	   (( 0.002 0.0063 0.0192 0.0471 0.0924 0.1451 0.1824 0.5056 )	%  <40  51-60  7  <85
	    ( 0.0038 0.0103 0.0288 0.0642 0.1148 0.1642 0.1879 0.426 )	%  <40  51-60  7  85-90
	    ( 0.0056 0.0141 0.0369 0.0773 0.1298 0.1744 0.1876 0.3744 )	%  <40  51-60  7  90-95
	    ( 0.0075 0.0178 0.0444 0.0885 0.1414 0.1807 0.1849 0.3347 )	%  <40  51-60  7  95-98
	    ( 0.0091 0.0205 0.0496 0.0958 0.1483 0.1838 0.1823 0.3107 ))	%  <40  51-60  7  >98
	   (( 0.0006 0.0022 0.0081 0.0237 0.0555 0.1038 0.1553 0.6507 )	%  <40  51-60  8  <85
	    ( 0.0012 0.0039 0.0131 0.0349 0.0742 0.1263 0.1722 0.5741 )	%  <40  51-60  8  85-90
	    ( 0.0018 0.0057 0.0177 0.0441 0.0881 0.141 0.1805 0.5212 )	%  <40  51-60  8  90-95
	    ( 0.0025 0.0074 0.0221 0.0525 0.0998 0.1519 0.1851 0.4786 )	%  <40  51-60  8  95-98
	    ( 0.0031 0.0088 0.0253 0.0582 0.1073 0.1583 0.1869 0.4521 ))	%  <40  51-60  8  >98
	   (( 0.0001 0.0007 0.003 0.0104 0.0291 0.0647 0.1154 0.7766 )	%  <40  51-60  9  <85
	    ( 0.0003 0.0013 0.0052 0.0165 0.0418 0.0848 0.1377 0.7123 )	%  <40  51-60  9  85-90
	    ( 0.0005 0.002 0.0074 0.0219 0.0522 0.0994 0.1515 0.6652 )	%  <40  51-60  9  90-95
	    ( 0.0007 0.0027 0.0096 0.0272 0.0615 0.1114 0.1616 0.6254 )	%  <40  51-60  9  95-98
	    ( 0.0009 0.0033 0.0113 0.0309 0.0677 0.1189 0.1672 0.5998 )))	%  <40  51-60  9  >98
	  ((( 0.4008 0.1882 0.1694 0.1221 0.0704 0.0325 0.012 0.0046 )	%  <40  61-70  1  <85
	    ( 0.4536 0.1868 0.1579 0.1069 0.0579 0.0251 0.0087 0.0031 )	%  <40  61-70  1  85-90
	    ( 0.4893 0.1841 0.1492 0.0968 0.0503 0.0209 0.007 0.0023 )	%  <40  61-70  1  90-95
	    ( 0.518 0.1809 0.1418 0.089 0.0447 0.018 0.0058 0.0019 )	%  <40  61-70  1  95-98
	    ( 0.5359 0.1785 0.137 0.0842 0.0414 0.0163 0.0051 0.0016 ))	%  <40  61-70  1  >98
	   (( 0.2661 0.1749 0.1875 0.1608 0.1105 0.0607 0.0267 0.0128 )	%  <40  61-70  2  <85
	    ( 0.3121 0.1824 0.1836 0.1479 0.0954 0.0492 0.0203 0.009 )	%  <40  61-70  2  85-90
	    ( 0.3445 0.1858 0.1793 0.1385 0.0857 0.0424 0.0168 0.007 )	%  <40  61-70  2  90-95
	    ( 0.3714 0.1874 0.1749 0.1307 0.0781 0.0374 0.0143 0.0057 )	%  <40  61-70  2  95-98
	    ( 0.3885 0.188 0.1718 0.1257 0.0736 0.0345 0.0129 0.005 ))	%  <40  61-70  2  >98
	   (( 0.1592 0.1418 0.1809 0.1848 0.1511 0.0989 0.0518 0.0315 )	%  <40  61-70  3  <85
	    ( 0.194 0.1554 0.1862 0.1786 0.1371 0.0843 0.0415 0.0231 )	%  <40  61-70  3  85-90
	    ( 0.2196 0.1635 0.1879 0.1728 0.1272 0.075 0.0354 0.0186 )	%  <40  61-70  3  90-95
	    ( 0.2415 0.1694 0.1882 0.1674 0.1192 0.0679 0.031 0.0156 )	%  <40  61-70  3  95-98
	    ( 0.2557 0.1727 0.1879 0.1636 0.1141 0.0637 0.0284 0.0139 ))	%  <40  61-70  3  >98
	   (( 0.0851 0.1002 0.1523 0.1852 0.1803 0.1405 0.0877 0.0687 )	%  <40  61-70  4  <85
	    ( 0.1081 0.1154 0.1646 0.188 0.1719 0.1258 0.0737 0.0526 )	%  <40  61-70  4  85-90
	    ( 0.1257 0.1255 0.1717 0.188 0.1648 0.1157 0.065 0.0436 )	%  <40  61-70  4  90-95
	    ( 0.1412 0.1335 0.1766 0.187 0.1585 0.1075 0.0584 0.0374 )	%  <40  61-70  4  95-98
	    ( 0.1515 0.1383 0.1792 0.1858 0.1543 0.1025 0.0545 0.0338 ))	%  <40  61-70  4  >98
	   (( 0.0405 0.0618 0.1118 0.1619 0.1876 0.1741 0.1293 0.133 )	%  <40  61-70  5  <85
	    ( 0.0537 0.0747 0.127 0.1726 0.1879 0.1637 0.1142 0.1062 )	%  <40  61-70  5  85-90
	    ( 0.0642 0.084 0.1369 0.1784 0.1862 0.1556 0.1041 0.0906 )	%  <40  61-70  5  90-95
	    ( 0.0738 0.0917 0.1445 0.1822 0.1838 0.1485 0.0961 0.0794 )	%  <40  61-70  5  95-98
	    ( 0.0803 0.0967 0.1491 0.1841 0.1819 0.1439 0.0911 0.073 ))	%  <40  61-70  5  >98
	   (( 0.0171 0.0332 0.0716 0.1234 0.1703 0.1881 0.1664 0.2299 )	%  <40  61-70  6  <85
	    ( 0.0237 0.0422 0.0854 0.1383 0.1792 0.1859 0.1543 0.1911 )	%  <40  61-70  6  85-90
	    ( 0.0292 0.0491 0.0951 0.1477 0.1835 0.1825 0.1453 0.1676 )	%  <40  61-70  6  90-95
	    ( 0.0343 0.055 0.1031 0.1548 0.186 0.1789 0.1377 0.1502 )	%  <40  61-70  6  95-98
	    ( 0.0378 0.0589 0.1082 0.159 0.1871 0.1762 0.1329 0.14 ))	%  <40  61-70  6  >98
	   (( 0.0064 0.0156 0.04 0.082 0.1348 0.1773 0.1867 0.3572 )	%  <40  61-70  7  <85
	    ( 0.0092 0.0208 0.0501 0.0966 0.149 0.184 0.1819 0.3083 )	%  <40  61-70  7  85-90
	    ( 0.0117 0.025 0.0577 0.1066 0.1577 0.1868 0.1771 0.2775 )	%  <40  61-70  7  90-95
	    ( 0.0141 0.0287 0.0642 0.1147 0.1641 0.1879 0.1723 0.2539 )	%  <40  61-70  7  95-98
	    ( 0.0158 0.0313 0.0684 0.1198 0.1678 0.1882 0.1689 0.2397 ))	%  <40  61-70  7  >98
	   (( 0.0021 0.0064 0.0195 0.0476 0.0931 0.1457 0.1827 0.503 )	%  <40  61-70  8  <85
	    ( 0.0032 0.0089 0.0256 0.0588 0.1081 0.1589 0.1871 0.4494 )	%  <40  61-70  8  85-90
	    ( 0.0041 0.0111 0.0305 0.0671 0.1182 0.1667 0.1882 0.4141 )	%  <40  61-70  8  90-95
	    ( 0.0051 0.0131 0.0348 0.0741 0.1263 0.1722 0.188 0.3863 )	%  <40  61-70  8  95-98
	    ( 0.0058 0.0145 0.0378 0.0787 0.1313 0.1753 0.1873 0.3693 ))	%  <40  61-70  8  >98
	   (( 0.0006 0.0023 0.0083 0.0241 0.056 0.1045 0.156 0.6483 )	%  <40  61-70  9  <85
	    ( 0.001 0.0033 0.0114 0.0313 0.0684 0.1197 0.1677 0.5972 )	%  <40  61-70  9  85-90
	    ( 0.0013 0.0043 0.0141 0.0369 0.0773 0.1298 0.1744 0.5621 )	%  <40  61-70  9  90-95
	    ( 0.0016 0.0052 0.0165 0.0418 0.0848 0.1376 0.1788 0.5336 )	%  <40  61-70  9  95-98
	    ( 0.0019 0.0059 0.0182 0.0451 0.0896 0.1424 0.1812 0.5158 )))	%  <40  61-70  9  >98
	  ((( 0.7463 0.1264 0.0742 0.0349 0.0131 0.004 0.001 0.0002 )	%  <40  >70  1  <85
	    ( 0.7578 0.1223 0.0706 0.0326 0.0121 0.0036 0.0008 0.0002 )	%  <40  >70  1  85-90
	    ( 0.7652 0.1196 0.0683 0.0312 0.0114 0.0033 0.0008 0.0002 )	%  <40  >70  1  90-95
	    ( 0.7711 0.1174 0.0664 0.0301 0.0109 0.0032 0.0007 0.0002 )	%  <40  >70  1  95-98
	    ( 0.7747 0.116 0.0653 0.0294 0.0106 0.0031 0.0007 0.0002 ))	%  <40  >70  1  >98
	   (( 0.614 0.1642 0.1148 0.0642 0.0288 0.0103 0.003 0.0008 )	%  <40  >70  2  <85
	    ( 0.6277 0.161 0.1107 0.0609 0.0268 0.0095 0.0027 0.0007 )	%  <40  >70  2  85-90
	    ( 0.6368 0.1588 0.108 0.0587 0.0256 0.0089 0.0025 0.0007 )	%  <40  >70  2  90-95
	    ( 0.644 0.157 0.1058 0.057 0.0246 0.0085 0.0024 0.0006 )	%  <40  >70  2  95-98
	    ( 0.6485 0.1559 0.1044 0.056 0.024 0.0083 0.0023 0.0006 ))	%  <40  >70  2  >98
	   (( 0.4667 0.186 0.1548 0.1032 0.055 0.0235 0.008 0.0028 )	%  <40  >70  3  <85
	    ( 0.4811 0.1849 0.1513 0.0991 0.052 0.0218 0.0073 0.0025 )	%  <40  >70  3  85-90
	    ( 0.4907 0.184 0.1489 0.0965 0.05 0.0208 0.0069 0.0023 )	%  <40  >70  3  90-95
	    ( 0.4983 0.1832 0.1469 0.0943 0.0485 0.0199 0.0066 0.0022 )	%  <40  >70  3  95-98
	    ( 0.5032 0.1827 0.1457 0.093 0.0475 0.0194 0.0064 0.0021 ))	%  <40  >70  3  >98
	   (( 0.3238 0.1838 0.1822 0.1445 0.0918 0.0467 0.019 0.0082 )	%  <40  >70  4  <85
	    ( 0.3369 0.1851 0.1804 0.1407 0.0879 0.0439 0.0176 0.0074 )	%  <40  >70  4  85-90
	    ( 0.3458 0.1859 0.1791 0.1382 0.0853 0.0422 0.0167 0.0069 )	%  <40  >70  4  90-95
	    ( 0.3529 0.1864 0.178 0.1361 0.0833 0.0408 0.016 0.0066 )	%  <40  >70  4  95-98
	    ( 0.3574 0.1867 0.1773 0.1348 0.082 0.0399 0.0156 0.0064 ))	%  <40  >70  4  >98
	   (( 0.2032 0.1584 0.187 0.1766 0.1335 0.0808 0.0392 0.0213 )	%  <40  >70  5  <85
	    ( 0.2135 0.1617 0.1876 0.1742 0.1295 0.0771 0.0367 0.0196 )	%  <40  >70  5  85-90
	    ( 0.2206 0.1638 0.1879 0.1726 0.1269 0.0747 0.0352 0.0184 )	%  <40  >70  5  90-95
	    ( 0.2264 0.1654 0.1881 0.1712 0.1247 0.0727 0.0339 0.0176 )	%  <40  >70  5  95-98
	    ( 0.23 0.1664 0.1881 0.1703 0.1233 0.0715 0.0332 0.0171 ))	%  <40  >70  5  >98
	   (( 0.1144 0.1191 0.1673 0.1882 0.1694 0.1221 0.0704 0.0491 )	%  <40  >70  6  <85
	    ( 0.1215 0.1232 0.1702 0.1881 0.1665 0.118 0.0669 0.0455 )	%  <40  >70  6  85-90
	    ( 0.1264 0.1259 0.1719 0.188 0.1645 0.1153 0.0647 0.0433 )	%  <40  >70  6  90-95
	    ( 0.1305 0.128 0.1733 0.1878 0.1629 0.1131 0.0629 0.0415 )	%  <40  >70  6  95-98
	    ( 0.133 0.1294 0.1741 0.1876 0.1618 0.1117 0.0618 0.0405 ))	%  <40  >70  6  >98
	   (( 0.0574 0.0781 0.1306 0.1749 0.1875 0.1608 0.1105 0.1002 )	%  <40  >70  7  <85
	    ( 0.0617 0.0818 0.1346 0.1772 0.1867 0.1575 0.1064 0.094 )	%  <40  >70  7  85-90
	    ( 0.0647 0.0844 0.1372 0.1786 0.1861 0.1553 0.1037 0.0901 )	%  <40  >70  7  90-95
	    ( 0.0671 0.0864 0.1393 0.1797 0.1856 0.1534 0.1015 0.087 )	%  <40  >70  7  95-98
	    ( 0.0687 0.0877 0.1406 0.1803 0.1852 0.1522 0.1002 0.0851 ))	%  <40  >70  7  >98
	   (( 0.0256 0.0447 0.0889 0.1418 0.1809 0.1848 0.1511 0.1823 )	%  <40  >70  8  <85
	    ( 0.0278 0.0474 0.0929 0.1455 0.1826 0.1834 0.1475 0.1729 )	%  <40  >70  8  85-90
	    ( 0.0294 0.0493 0.0955 0.148 0.1836 0.1824 0.145 0.1668 )	%  <40  >70  8  90-95
	    ( 0.0307 0.0509 0.0976 0.15 0.1844 0.1815 0.143 0.162 )	%  <40  >70  8  95-98
	    ( 0.0315 0.0519 0.099 0.1512 0.1848 0.1809 0.1417 0.159 ))	%  <40  >70  8  >98
	   (( 0.0101 0.0223 0.0528 0.1002 0.1523 0.1852 0.1803 0.2968 )	%  <40  >70  9  <85
	    ( 0.0111 0.024 0.0559 0.1043 0.1558 0.1863 0.1783 0.2845 )	%  <40  >70  9  85-90
	    ( 0.0118 0.0251 0.058 0.107 0.158 0.1869 0.1769 0.2763 )	%  <40  >70  9  90-95
	    ( 0.0124 0.0261 0.0597 0.1092 0.1598 0.1872 0.1757 0.2699 )	%  <40  >70  9  95-98
	    ( 0.0128 0.0267 0.0608 0.1105 0.1609 0.1875 0.1749 0.266 ))))	%  <40  >70  9  >98
	 (((( 0.3496 0.1862 0.1785 0.137 0.0842 0.0414 0.0163 0.0067 )	%  40-60  <25  1  <85
	    ( 0.5307 0.1792 0.1384 0.0856 0.0423 0.0168 0.0053 0.0017 )	%  40-60  <25  1  85-90
	    ( 0.6502 0.1555 0.1039 0.0556 0.0238 0.0082 0.0022 0.0006 )	%  40-60  <25  1  90-95
	    ( 0.7366 0.1297 0.0772 0.0368 0.014 0.0043 0.001 0.0002 )	%  40-60  <25  1  95-98
	    ( 0.7845 0.1123 0.0622 0.0276 0.0098 0.0028 0.0006 0.0001 ))	%  40-60  <25  1  >98
	   (( 0.2237 0.1647 0.188 0.1718 0.1257 0.0736 0.0345 0.018 )	%  40-60  <25  2  <85
	    ( 0.3835 0.1879 0.1727 0.1271 0.0749 0.0353 0.0133 0.0052 )	%  40-60  <25  2  85-90
	    ( 0.505 0.1825 0.1452 0.0925 0.0472 0.0193 0.0063 0.0021 )	%  40-60  <25  2  90-95
	    ( 0.6024 0.1667 0.1182 0.0671 0.0305 0.0111 0.0032 0.0009 )	%  40-60  <25  2  95-98
	    ( 0.6606 0.1528 0.1008 0.0532 0.0225 0.0076 0.0021 0.0005 ))	%  40-60  <25  2  >98
	   (( 0.1286 0.127 0.1727 0.1879 0.1637 0.1141 0.0637 0.0423 )	%  40-60  <25  3  <85
	    ( 0.2515 0.1718 0.188 0.1647 0.1156 0.0649 0.0292 0.0144 )	%  40-60  <25  3  85-90
	    ( 0.3591 0.1868 0.177 0.1343 0.0815 0.0396 0.0154 0.0063 )	%  40-60  <25  3  90-95
	    ( 0.4547 0.1868 0.1577 0.1066 0.0576 0.025 0.0086 0.003 )	%  40-60  <25  3  95-98
	    ( 0.5162 0.1812 0.1423 0.0895 0.045 0.0181 0.0058 0.0019 ))	%  40-60  <25  3  >98
	   (( 0.066 0.0855 0.1383 0.1792 0.1858 0.1543 0.1025 0.0884 )	%  40-60  <25  4  <85
	    ( 0.1485 0.1369 0.1785 0.1862 0.1555 0.104 0.0556 0.0348 )	%  40-60  <25  4  85-90
	    ( 0.2314 0.1668 0.1882 0.1699 0.1228 0.0711 0.0329 0.0169 )	%  40-60  <25  4  90-95
	    ( 0.3131 0.1826 0.1835 0.1476 0.0951 0.049 0.0202 0.0089 )	%  40-60  <25  4  95-98
	    ( 0.3697 0.1874 0.1752 0.1312 0.0786 0.0377 0.0145 0.0058 ))	%  40-60  <25  4  >98
	   (( 0.0301 0.0502 0.0967 0.1491 0.1841 0.1819 0.1439 0.1642 )	%  40-60  <25  5  <85
	    ( 0.0783 0.0952 0.1478 0.1835 0.1825 0.1453 0.0926 0.0748 )	%  40-60  <25  5  85-90
	    ( 0.134 0.1299 0.1744 0.1876 0.1614 0.1112 0.0613 0.0401 )	%  40-60  <25  5  90-95
	    ( 0.1948 0.1556 0.1862 0.1784 0.1368 0.084 0.0413 0.0229 )	%  40-60  <25  5  95-98
	    ( 0.2401 0.169 0.1882 0.1677 0.1197 0.0683 0.0312 0.0157 ))	%  40-60  <25  5  >98
	   (( 0.0121 0.0257 0.0589 0.1082 0.159 0.1871 0.1762 0.2729 )	%  40-60  <25  6  <85
	    ( 0.0368 0.0578 0.1067 0.1578 0.1868 0.177 0.1343 0.1429 )	%  40-60  <25  6  85-90
	    ( 0.0693 0.0882 0.1411 0.1806 0.185 0.1518 0.0997 0.0844 )	%  40-60  <25  6  90-95
	    ( 0.1086 0.1157 0.1649 0.188 0.1717 0.1255 0.0734 0.0523 )	%  40-60  <25  6  95-98
	    ( 0.1402 0.133 0.1763 0.1871 0.1589 0.108 0.0588 0.0377 ))	%  40-60  <25  6  >98
	   (( 0.0043 0.0115 0.0313 0.0684 0.1198 0.1678 0.1882 0.4087 )	%  40-60  <25  7  <85
	    ( 0.0153 0.0305 0.0672 0.1183 0.1668 0.1882 0.1699 0.2438 )	%  40-60  <25  7  85-90
	    ( 0.0319 0.0522 0.0995 0.1516 0.185 0.1807 0.1412 0.1579 )	%  40-60  <25  7  90-95
	    ( 0.054 0.075 0.1273 0.1728 0.1879 0.1635 0.1139 0.1056 )	%  40-60  <25  7  95-98
	    ( 0.0732 0.0913 0.144 0.182 0.184 0.149 0.0965 0.0801 ))	%  40-60  <25  7  >98
	   (( 0.0014 0.0045 0.0145 0.0378 0.0787 0.1313 0.1753 0.5567 )	%  40-60  <25  8  <85
	    ( 0.0056 0.0141 0.0369 0.0774 0.1298 0.1744 0.1876 0.3742 )	%  40-60  <25  8  85-90
	    ( 0.013 0.027 0.0612 0.111 0.1613 0.1875 0.1746 0.2645 )	%  40-60  <25  8  90-95
	    ( 0.0238 0.0424 0.0857 0.1386 0.1793 0.1858 0.1541 0.1903 )	%  40-60  <25  8  95-98
	    ( 0.0339 0.0546 0.1026 0.1544 0.1859 0.1791 0.1382 0.1512 ))	%  40-60  <25  8  >98
	   (( 0.0004 0.0015 0.0059 0.0182 0.0451 0.0896 0.1424 0.697 )	%  40-60  <25  9  <85
	    ( 0.0018 0.0057 0.0177 0.0441 0.0882 0.141 0.1806 0.521 )	%  40-60  <25  9  85-90
	    ( 0.0046 0.0122 0.0328 0.0709 0.1226 0.1698 0.1882 0.3989 )	%  40-60  <25  9  90-95
	    ( 0.0093 0.0209 0.0503 0.0969 0.1493 0.1841 0.1818 0.3073 )	%  40-60  <25  9  95-98
	    ( 0.0139 0.0285 0.0638 0.1142 0.1637 0.1879 0.1726 0.2553 )))	%  40-60  <25  9  >98
	  ((( 0.2547 0.1725 0.1879 0.1639 0.1144 0.0639 0.0286 0.014 )	%  40-60  25-40  1  <85
	    ( 0.3778 0.1877 0.1738 0.1288 0.0764 0.0363 0.0138 0.0055 )	%  40-60  25-40  1  85-90
	    ( 0.4684 0.1859 0.1544 0.1027 0.0546 0.0233 0.0079 0.0027 )	%  40-60  25-40  1  90-95
	    ( 0.5424 0.1775 0.1352 0.0824 0.0402 0.0157 0.0049 0.0015 )	%  40-60  25-40  1  95-98
	    ( 0.5881 0.1696 0.1223 0.0706 0.0327 0.0121 0.0036 0.001 ))	%  40-60  25-40  1  >98
	   (( 0.1508 0.138 0.179 0.1859 0.1545 0.1028 0.0548 0.0341 )	%  40-60  25-40  2  <85
	    ( 0.2468 0.1706 0.1881 0.166 0.1173 0.0663 0.03 0.0149 )	%  40-60  25-40  2  85-90
	    ( 0.3254 0.184 0.182 0.1441 0.0913 0.0463 0.0188 0.0081 )	%  40-60  25-40  2  90-95
	    ( 0.3948 0.1881 0.1706 0.1238 0.0719 0.0335 0.0125 0.0048 )	%  40-60  25-40  2  95-98
	    ( 0.4401 0.1875 0.161 0.1107 0.0609 0.0268 0.0095 0.0034 ))	%  40-60  25-40  2  >98
	   (( 0.0798 0.0963 0.1488 0.1839 0.182 0.1442 0.0915 0.0734 )	%  40-60  25-40  3  <85
	    ( 0.145 0.1353 0.1776 0.1866 0.1569 0.1056 0.0569 0.036 )	%  40-60  25-40  3  85-90
	    ( 0.2044 0.1589 0.187 0.1763 0.133 0.0804 0.0388 0.0211 )	%  40-60  25-40  3  90-95
	    ( 0.2611 0.1738 0.1877 0.1622 0.1122 0.0621 0.0275 0.0133 )	%  40-60  25-40  3  95-98
	    ( 0.3001 0.1808 0.1849 0.1513 0.0992 0.052 0.0218 0.0098 ))	%  40-60  25-40  3  >98
	   (( 0.0376 0.0586 0.1078 0.1587 0.187 0.1764 0.1332 0.1406 )	%  40-60  25-40  4  <85
	    ( 0.0762 0.0936 0.1462 0.1829 0.1831 0.1468 0.0942 0.077 )	%  40-60  25-40  4  85-90
	    ( 0.1152 0.1196 0.1677 0.1882 0.1691 0.1216 0.07 0.0487 )	%  40-60  25-40  4  90-95
	    ( 0.1554 0.1401 0.1801 0.1853 0.1526 0.1006 0.0531 0.0326 )	%  40-60  25-40  4  95-98
	    ( 0.1848 0.1521 0.1851 0.1804 0.1408 0.0879 0.0439 0.025 ))	%  40-60  25-40  4  >98
	   (( 0.0157 0.0311 0.0682 0.1195 0.1676 0.1882 0.1692 0.2407 )	%  40-60  25-40  5  <85
	    ( 0.0356 0.0564 0.105 0.1564 0.1864 0.1779 0.1359 0.1463 )	%  40-60  25-40  5  85-90
	    ( 0.0579 0.0786 0.1311 0.1752 0.1874 0.1604 0.11 0.0995 )	%  40-60  25-40  5  90-95
	    ( 0.0828 0.0985 0.1507 0.1847 0.1811 0.1422 0.0893 0.0707 )	%  40-60  25-40  5  95-98
	    ( 0.1019 0.1115 0.1617 0.1876 0.1743 0.1296 0.0771 0.0563 ))	%  40-60  25-40  5  >98
	   (( 0.0058 0.0144 0.0376 0.0784 0.131 0.1751 0.1874 0.3704 )	%  40-60  25-40  6  <85
	    ( 0.0147 0.0297 0.0658 0.1166 0.1655 0.1881 0.1711 0.2485 )	%  40-60  25-40  6  85-90
	    ( 0.0258 0.045 0.0894 0.1422 0.1811 0.1846 0.1507 0.1811 )	%  40-60  25-40  6  90-95
	    ( 0.0392 0.0604 0.11 0.1605 0.1874 0.1751 0.131 0.1363 )	%  40-60  25-40  6  95-98
	    ( 0.0501 0.0714 0.1231 0.1701 0.1881 0.1666 0.118 0.1125 ))	%  40-60  25-40  6  >98
	   (( 0.0019 0.0058 0.0181 0.0449 0.0893 0.1421 0.1811 0.517 )	%  40-60  25-40  7  <85
	    ( 0.0054 0.0136 0.0359 0.0758 0.1282 0.1734 0.1878 0.3799 )	%  40-60  25-40  7  85-90
	    ( 0.0102 0.0225 0.0532 0.1007 0.1527 0.1853 0.1801 0.2953 )	%  40-60  25-40  7  90-95
	    ( 0.0164 0.0323 0.0701 0.1217 0.1691 0.1882 0.1676 0.2346 )	%  40-60  25-40  7  95-98
	    ( 0.0218 0.0398 0.0818 0.1346 0.1772 0.1867 0.1576 0.2005 ))	%  40-60  25-40  7  >98
	   (( 0.0005 0.002 0.0076 0.0224 0.0531 0.1006 0.1526 0.6612 )	%  40-60  25-40  8  <85
	    ( 0.0017 0.0054 0.0171 0.043 0.0866 0.1394 0.1798 0.5269 )	%  40-60  25-40  8  85-90
	    ( 0.0035 0.0098 0.0276 0.0622 0.1123 0.1623 0.1877 0.4346 )	%  40-60  25-40  8  90-95
	    ( 0.0061 0.0151 0.0389 0.0804 0.1331 0.1764 0.187 0.363 )	%  40-60  25-40  8  95-98
	    ( 0.0084 0.0194 0.0474 0.0928 0.1455 0.1826 0.1834 0.3204 ))	%  40-60  25-40  8  >98
	   (( 0.0001 0.0006 0.0028 0.0098 0.0275 0.0621 0.1121 0.785 )	%  40-60  25-40  9  <85
	    ( 0.0005 0.0019 0.0071 0.0213 0.051 0.0978 0.1501 0.6704 )	%  40-60  25-40  9  85-90
	    ( 0.0011 0.0037 0.0125 0.0335 0.072 0.1239 0.1706 0.5827 )	%  40-60  25-40  9  90-95
	    ( 0.002 0.0061 0.0188 0.0464 0.0914 0.1441 0.182 0.5092 )	%  40-60  25-40  9  95-98
	    ( 0.0029 0.0082 0.0239 0.0558 0.1042 0.1557 0.1863 0.4629 )))	%  40-60  25-40  9  >98
	  ((( 0.1963 0.1561 0.1864 0.1781 0.1362 0.0834 0.0409 0.0226 )	%  40-60  41-50  1  <85
	    ( 0.278 0.1772 0.1867 0.1576 0.1064 0.0575 0.0249 0.0117 )	%  40-60  41-50  1  85-90
	    ( 0.3404 0.1854 0.1799 0.1397 0.0869 0.0432 0.0172 0.0072 )	%  40-60  41-50  1  90-95
	    ( 0.3938 0.1881 0.1708 0.1241 0.0722 0.0336 0.0125 0.0048 )	%  40-60  41-50  1  95-98
	    ( 0.4283 0.1879 0.1637 0.1141 0.0637 0.0285 0.0102 0.0037 ))	%  40-60  41-50  1  >98
	   (( 0.1097 0.1163 0.1653 0.1881 0.1713 0.1248 0.0728 0.0517 )	%  40-60  41-50  2  <85
	    ( 0.168 0.1455 0.1826 0.1834 0.1475 0.095 0.0489 0.029 )	%  40-60  41-50  2  85-90
	    ( 0.2163 0.1625 0.1877 0.1736 0.1285 0.0761 0.0361 0.0191 )	%  40-60  41-50  2  90-95
	    ( 0.2602 0.1737 0.1877 0.1624 0.1125 0.0624 0.0277 0.0134 )	%  40-60  41-50  2  95-98
	    ( 0.2898 0.1792 0.1858 0.1543 0.1025 0.0545 0.0232 0.0106 ))	%  40-60  41-50  2  >98
	   (( 0.0546 0.0756 0.1279 0.1732 0.1878 0.163 0.1132 0.1046 )	%  40-60  41-50  3  <85
	    ( 0.0909 0.1042 0.1557 0.1863 0.1783 0.1367 0.0838 0.064 )	%  40-60  41-50  3  85-90
	    ( 0.1234 0.1242 0.1709 0.1881 0.1658 0.1169 0.066 0.0446 )	%  40-60  41-50  3  90-95
	    ( 0.1548 0.1398 0.18 0.1854 0.1529 0.1009 0.0533 0.0328 )	%  40-60  41-50  3  95-98
	    ( 0.1769 0.1491 0.184 0.1819 0.1439 0.0912 0.0462 0.0268 ))	%  40-60  41-50  3  >98
	   (( 0.0241 0.0428 0.0863 0.1392 0.1796 0.1856 0.1535 0.1888 )	%  40-60  41-50  4  <85
	    ( 0.0437 0.0651 0.1158 0.165 0.188 0.1716 0.1253 0.1254 )	%  40-60  41-50  4  85-90
	    ( 0.0628 0.0828 0.1356 0.1778 0.1865 0.1566 0.1053 0.0924 )	%  40-60  41-50  4  90-95
	    ( 0.0824 0.0982 0.1505 0.1846 0.1812 0.1424 0.0896 0.0711 )	%  40-60  41-50  4  95-98
	    ( 0.0967 0.1081 0.159 0.1871 0.1762 0.1329 0.0802 0.0598 ))	%  40-60  41-50  4  >98
	   (( 0.0094 0.0212 0.0508 0.0975 0.1498 0.1843 0.1815 0.3054 )	%  40-60  41-50  5  <85
	    ( 0.0187 0.0355 0.0752 0.1274 0.1729 0.1879 0.1634 0.2192 )	%  40-60  41-50  5  85-90
	    ( 0.0284 0.0482 0.0939 0.1465 0.183 0.183 0.1465 0.1704 )	%  40-60  41-50  5  90-95
	    ( 0.039 0.0602 0.1097 0.1603 0.1873 0.1753 0.1313 0.1369 )	%  40-60  41-50  5  95-98
	    ( 0.0471 0.0684 0.1198 0.1678 0.1882 0.169 0.1214 0.1184 ))	%  40-60  41-50  5  >98
	   (( 0.0032 0.0091 0.0261 0.0596 0.109 0.1597 0.1872 0.4461 )	%  40-60  41-50  6  <85
	    ( 0.007 0.0169 0.0425 0.0858 0.1387 0.1794 0.1857 0.3439 )	%  40-60  41-50  6  85-90
	    ( 0.0114 0.0244 0.0567 0.1053 0.1567 0.1865 0.1778 0.2812 )	%  40-60  41-50  6  90-95
	    ( 0.0163 0.0321 0.0698 0.1214 0.1689 0.1882 0.1678 0.2354 )	%  40-60  41-50  6  95-98
	    ( 0.0203 0.0378 0.0787 0.1313 0.1753 0.1874 0.1603 0.209 ))	%  40-60  41-50  6  >98
	   (( 0.001 0.0034 0.0117 0.0317 0.0692 0.1206 0.1684 0.594 )	%  40-60  41-50  7  <85
	    ( 0.0023 0.007 0.021 0.0504 0.097 0.1494 0.1842 0.4887 )	%  40-60  41-50  7  85-90
	    ( 0.004 0.0108 0.0299 0.066 0.117 0.1658 0.1881 0.4185 )	%  40-60  41-50  7  90-95
	    ( 0.006 0.015 0.0387 0.0802 0.1328 0.1762 0.1871 0.364 )	%  40-60  41-50  7  95-98
	    ( 0.0077 0.0182 0.0451 0.0896 0.1424 0.1812 0.1846 0.3312 ))	%  40-60  41-50  7  >98
	   (( 0.0003 0.0011 0.0046 0.0148 0.0383 0.0795 0.1321 0.7294 )	%  40-60  41-50  8  <85
	    ( 0.0007 0.0025 0.009 0.0258 0.0592 0.1085 0.1593 0.6349 )	%  40-60  41-50  8  85-90
	    ( 0.0012 0.0042 0.0137 0.0361 0.0761 0.1285 0.1736 0.5665 )	%  40-60  41-50  8  90-95
	    ( 0.002 0.0061 0.0187 0.0462 0.0911 0.1439 0.1819 0.5102 )	%  40-60  41-50  8  95-98
	    ( 0.0026 0.0076 0.0225 0.0533 0.1009 0.1528 0.1854 0.4748 ))	%  40-60  41-50  8  >98
	   (( 0.0001 0.0003 0.0015 0.006 0.0185 0.0457 0.0904 0.8375 )	%  40-60  41-50  9  <85
	    ( 0.0002 0.0008 0.0034 0.0115 0.0315 0.0688 0.1201 0.7637 )	%  40-60  41-50  9  85-90
	    ( 0.0003 0.0014 0.0055 0.0172 0.0432 0.0869 0.1397 0.7057 )	%  40-60  41-50  9  90-95
	    ( 0.0006 0.0022 0.0079 0.0232 0.0545 0.1025 0.1542 0.655 )	%  40-60  41-50  9  95-98
	    ( 0.0008 0.0028 0.0098 0.0277 0.0623 0.1125 0.1624 0.6218 )))	%  40-60  41-50  9  >98
	  ((( 0.156 0.1404 0.1802 0.1852 0.1524 0.1004 0.0529 0.0324 )	%  40-60  51-60  1  <85
	    ( 0.2088 0.1602 0.1873 0.1753 0.1314 0.0788 0.0378 0.0204 )	%  40-60  51-60  1  85-90
	    ( 0.2492 0.1712 0.1881 0.1654 0.1164 0.0656 0.0296 0.0146 )	%  40-60  51-60  1  90-95
	    ( 0.2843 0.1783 0.1863 0.1558 0.1043 0.0559 0.024 0.0111 )	%  40-60  51-60  1  95-98
	    ( 0.3074 0.1818 0.1841 0.1493 0.0969 0.0503 0.0209 0.0093 ))	%  40-60  51-60  1  >98
	   (( 0.0831 0.0988 0.151 0.1848 0.181 0.1419 0.0891 0.0704 )	%  40-60  51-60  2  <85
	    ( 0.1182 0.1213 0.1689 0.1882 0.1679 0.1199 0.0685 0.0471 )	%  40-60  51-60  2  85-90
	    ( 0.1468 0.1361 0.178 0.1864 0.1562 0.1048 0.0563 0.0354 )	%  40-60  51-60  2  90-95
	    ( 0.1727 0.1474 0.1834 0.1826 0.1456 0.0929 0.0475 0.0278 )	%  40-60  51-60  2  95-98
	    ( 0.1903 0.1541 0.1858 0.1793 0.1386 0.0857 0.0424 0.0238 ))	%  40-60  51-60  2  >98
	   (( 0.0394 0.0606 0.1103 0.1607 0.1874 0.175 0.1308 0.1358 )	%  40-60  51-60  3  <85
	    ( 0.0597 0.0801 0.1328 0.1762 0.1871 0.1591 0.1082 0.0968 )	%  40-60  51-60  3  85-90
	    ( 0.0773 0.0944 0.147 0.1832 0.1828 0.146 0.0934 0.0759 )	%  40-60  51-60  3  90-95
	    ( 0.094 0.1063 0.1575 0.1867 0.1772 0.1347 0.0819 0.0617 )	%  40-60  51-60  3  95-98
	    ( 0.1056 0.1139 0.1635 0.1879 0.1728 0.1273 0.075 0.054 ))	%  40-60  51-60  3  >98
	   (( 0.0165 0.0324 0.0703 0.1219 0.1693 0.1882 0.1674 0.2339 )	%  40-60  51-60  4  <85
	    ( 0.0268 0.0461 0.0911 0.1438 0.1819 0.1841 0.1492 0.1771 )	%  40-60  51-60  4  85-90
	    ( 0.0362 0.0571 0.1059 0.1571 0.1866 0.1775 0.1351 0.1445 )	%  40-60  51-60  4  90-95
	    ( 0.0455 0.0669 0.1179 0.1665 0.1881 0.1702 0.1232 0.1216 )	%  40-60  51-60  4  95-98
	    ( 0.0523 0.0734 0.1255 0.1717 0.188 0.1649 0.1157 0.1086 ))	%  40-60  51-60  4  >98
	   (( 0.0061 0.0151 0.0391 0.0807 0.1334 0.1765 0.187 0.3621 )	%  40-60  51-60  5  <85
	    ( 0.0106 0.0232 0.0545 0.1024 0.1542 0.1858 0.1792 0.2901 )	%  40-60  51-60  5  85-90
	    ( 0.015 0.0301 0.0665 0.1175 0.1662 0.1881 0.1705 0.2461 )	%  40-60  51-60  5  90-95
	    ( 0.0195 0.0367 0.077 0.1295 0.1742 0.1876 0.1617 0.2137 )	%  40-60  51-60  5  95-98
	    ( 0.0229 0.0413 0.084 0.1368 0.1784 0.1862 0.1556 0.1948 ))	%  40-60  51-60  5  >98
	   (( 0.002 0.0062 0.0189 0.0466 0.0916 0.1444 0.1821 0.5082 )	%  40-60  51-60  6  <85
	    ( 0.0037 0.0102 0.0284 0.0636 0.114 0.1636 0.1879 0.4286 )	%  40-60  51-60  6  85-90
	    ( 0.0055 0.0139 0.0364 0.0766 0.129 0.1739 0.1877 0.377 )	%  40-60  51-60  6  90-95
	    ( 0.0074 0.0176 0.0439 0.0878 0.1407 0.1804 0.1852 0.3371 )	%  40-60  51-60  6  95-98
	    ( 0.0089 0.0202 0.049 0.0951 0.1476 0.1835 0.1826 0.3131 ))	%  40-60  51-60  6  >98
	   (( 0.0006 0.0022 0.008 0.0234 0.0549 0.103 0.1547 0.6532 )	%  40-60  51-60  7  <85
	    ( 0.0011 0.0039 0.0129 0.0345 0.0735 0.1256 0.1718 0.5767 )	%  40-60  51-60  7  85-90
	    ( 0.0018 0.0056 0.0174 0.0436 0.0874 0.1402 0.1802 0.5239 )	%  40-60  51-60  7  90-95
	    ( 0.0025 0.0073 0.0218 0.052 0.0991 0.1513 0.1849 0.4813 )	%  40-60  51-60  7  95-98
	    ( 0.003 0.0086 0.025 0.0576 0.1066 0.1577 0.1868 0.4547 ))	%  40-60  51-60  7  >98
	   (( 0.0001 0.0007 0.0029 0.0103 0.0287 0.0641 0.1146 0.7785 )	%  40-60  51-60  8  <85
	    ( 0.0003 0.0013 0.0051 0.0163 0.0414 0.0841 0.1369 0.7146 )	%  40-60  51-60  8  85-90
	    ( 0.0005 0.0019 0.0072 0.0216 0.0516 0.0986 0.1509 0.6676 )	%  40-60  51-60  8  90-95
	    ( 0.0007 0.0027 0.0094 0.0268 0.0609 0.1106 0.161 0.6279 )	%  40-60  51-60  8  95-98
	    ( 0.0009 0.0032 0.0111 0.0305 0.0671 0.1182 0.1667 0.6024 ))	%  40-60  51-60  8  >98
	   (( 0.0001 0.0002 0.0009 0.0039 0.0131 0.0348 0.0741 0.873 )	%  40-60  51-60  9  <85
	    ( 0.0001 0.0004 0.0018 0.0067 0.0203 0.0491 0.0952 0.8264 )	%  40-60  51-60  9  85-90
	    ( 0.0001 0.0006 0.0026 0.0094 0.0266 0.0605 0.1102 0.79 )	%  40-60  51-60  9  90-95
	    ( 0.0002 0.0008 0.0036 0.0121 0.0326 0.0706 0.1222 0.7579 )	%  40-60  51-60  9  95-98
	    ( 0.0002 0.001 0.0043 0.0141 0.0368 0.0772 0.1297 0.7366 )))	%  40-60  51-60  9  >98
	  ((( 0.2639 0.1744 0.1876 0.1614 0.1112 0.0613 0.0271 0.013 )	%  40-60  61-70  1  <85
	    ( 0.3097 0.1821 0.1839 0.1486 0.0961 0.0498 0.0206 0.0091 )	%  40-60  61-70  1  85-90
	    ( 0.3421 0.1856 0.1797 0.1392 0.0864 0.0429 0.017 0.0071 )	%  40-60  61-70  1  90-95
	    ( 0.3688 0.1873 0.1754 0.1314 0.0788 0.0378 0.0145 0.0058 )	%  40-60  61-70  1  95-98
	    ( 0.3859 0.1879 0.1723 0.1264 0.0743 0.0349 0.0131 0.0051 ))	%  40-60  61-70  1  >98
	   (( 0.1575 0.1411 0.1806 0.185 0.1518 0.0997 0.0524 0.032 )	%  40-60  61-70  2  <85
	    ( 0.1922 0.1547 0.186 0.1789 0.1378 0.085 0.0419 0.0234 )	%  40-60  61-70  2  85-90
	    ( 0.2177 0.1629 0.1878 0.1733 0.128 0.0757 0.0358 0.0189 )	%  40-60  61-70  2  90-95
	    ( 0.2394 0.1689 0.1882 0.1679 0.1199 0.0686 0.0314 0.0158 )	%  40-60  61-70  2  95-98
	    ( 0.2536 0.1722 0.188 0.1642 0.1148 0.0643 0.0288 0.0141 ))	%  40-60  61-70  2  >98
	   (( 0.0841 0.0995 0.1516 0.185 0.1807 0.1412 0.0884 0.0695 )	%  40-60  61-70  3  <85
	    ( 0.1069 0.1146 0.1641 0.1879 0.1723 0.1265 0.0743 0.0533 )	%  40-60  61-70  3  85-90
	    ( 0.1244 0.1248 0.1712 0.1881 0.1654 0.1164 0.0656 0.0442 )	%  40-60  61-70  3  90-95
	    ( 0.1397 0.1327 0.1761 0.1871 0.1591 0.1083 0.059 0.0379 )	%  40-60  61-70  3  95-98
	    ( 0.1499 0.1376 0.1788 0.186 0.1549 0.1032 0.0551 0.0343 ))	%  40-60  61-70  3  >98
	   (( 0.0399 0.0612 0.111 0.1613 0.1875 0.1746 0.1301 0.1344 )	%  40-60  61-70  4  <85
	    ( 0.053 0.0741 0.1262 0.1722 0.188 0.1643 0.1149 0.1074 )	%  40-60  61-70  4  85-90
	    ( 0.0634 0.0833 0.1361 0.178 0.1864 0.1562 0.1048 0.0917 )	%  40-60  61-70  4  90-95
	    ( 0.0728 0.091 0.1438 0.1818 0.1841 0.1492 0.0968 0.0804 )	%  40-60  61-70  4  95-98
	    ( 0.0793 0.0959 0.1484 0.1838 0.1822 0.1446 0.0919 0.0739 ))	%  40-60  61-70  4  >98
	   (( 0.0168 0.0328 0.0709 0.1226 0.1698 0.1882 0.1669 0.2319 )	%  40-60  61-70  5  <85
	    ( 0.0233 0.0417 0.0847 0.1375 0.1788 0.186 0.155 0.1929 )	%  40-60  61-70  5  85-90
	    ( 0.0287 0.0485 0.0944 0.147 0.1832 0.1828 0.146 0.1693 )	%  40-60  61-70  5  90-95
	    ( 0.0338 0.0544 0.1024 0.1541 0.1858 0.1793 0.1385 0.1518 )	%  40-60  61-70  5  95-98
	    ( 0.0373 0.0583 0.1074 0.1584 0.1869 0.1766 0.1336 0.1415 ))	%  40-60  61-70  5  >98
	   (( 0.0062 0.0154 0.0395 0.0813 0.1341 0.1769 0.1868 0.3597 )	%  40-60  61-70  6  <85
	    ( 0.0091 0.0205 0.0496 0.0958 0.1483 0.1838 0.1822 0.3107 )	%  40-60  61-70  6  85-90
	    ( 0.0115 0.0246 0.0571 0.1059 0.1571 0.1866 0.1775 0.2797 )	%  40-60  61-70  6  90-95
	    ( 0.0138 0.0284 0.0636 0.114 0.1635 0.1879 0.1728 0.256 )	%  40-60  61-70  6  95-98
	    ( 0.0155 0.0309 0.0678 0.119 0.1673 0.1882 0.1695 0.2418 ))	%  40-60  61-70  6  >98
	   (( 0.002 0.0063 0.0192 0.0471 0.0923 0.1451 0.1824 0.5056 )	%  40-60  61-70  7  <85
	    ( 0.0031 0.0088 0.0253 0.0582 0.1073 0.1583 0.1869 0.452 )	%  40-60  61-70  7  85-90
	    ( 0.0041 0.0109 0.0301 0.0665 0.1175 0.1662 0.1881 0.4167 )	%  40-60  61-70  7  90-95
	    ( 0.005 0.0129 0.0344 0.0735 0.1256 0.1717 0.188 0.3889 )	%  40-60  61-70  7  95-98
	    ( 0.0057 0.0143 0.0373 0.078 0.1306 0.1749 0.1875 0.3718 ))	%  40-60  61-70  7  >98
	   (( 0.0006 0.0022 0.0081 0.0237 0.0555 0.1037 0.1553 0.6508 )	%  40-60  61-70  8  <85
	    ( 0.0009 0.0033 0.0113 0.0309 0.0677 0.1189 0.1672 0.5998 )	%  40-60  61-70  8  85-90
	    ( 0.0013 0.0042 0.0139 0.0364 0.0766 0.129 0.1739 0.5647 )	%  40-60  61-70  8  90-95
	    ( 0.0016 0.0051 0.0163 0.0413 0.0841 0.1369 0.1784 0.5363 )	%  40-60  61-70  8  95-98
	    ( 0.0018 0.0058 0.0179 0.0446 0.0889 0.1417 0.1809 0.5184 ))	%  40-60  61-70  8  >98
	   (( 0.0001 0.0007 0.003 0.0104 0.0291 0.0647 0.1153 0.7766 )	%  40-60  61-70  9  <85
	    ( 0.0002 0.0011 0.0044 0.0143 0.0373 0.0779 0.1305 0.7344 )	%  40-60  61-70  9  85-90
	    ( 0.0003 0.0014 0.0056 0.0174 0.0436 0.0874 0.1402 0.7041 )	%  40-60  61-70  9  90-95
	    ( 0.0004 0.0018 0.0067 0.0203 0.0491 0.0952 0.1477 0.6788 )	%  40-60  61-70  9  95-98
	    ( 0.0005 0.002 0.0075 0.0222 0.0528 0.1002 0.1522 0.6626 )))	%  40-60  61-70  9  >98
	  ((( 0.6114 0.1647 0.1155 0.0649 0.0291 0.0105 0.003 0.0008 )	%  40-60  >70  1  <85
	    ( 0.6252 0.1616 0.1114 0.0615 0.0272 0.0096 0.0027 0.0007 )	%  40-60  >70  1  85-90
	    ( 0.6343 0.1594 0.1087 0.0593 0.0259 0.0091 0.0025 0.0007 )	%  40-60  >70  1  90-95
	    ( 0.6415 0.1577 0.1065 0.0576 0.025 0.0086 0.0024 0.0006 )	%  40-60  >70  1  95-98
	    ( 0.646 0.1565 0.1052 0.0566 0.0244 0.0084 0.0023 0.0006 ))	%  40-60  >70  1  >98
	   (( 0.464 0.1862 0.1555 0.1039 0.0556 0.0238 0.0082 0.0028 )	%  40-60  >70  2  <85
	    ( 0.4784 0.1851 0.152 0.0999 0.0525 0.0221 0.0075 0.0025 )	%  40-60  >70  2  85-90
	    ( 0.488 0.1842 0.1496 0.0972 0.0506 0.0211 0.007 0.0023 )	%  40-60  >70  2  90-95
	    ( 0.4957 0.1835 0.1476 0.0951 0.049 0.0202 0.0067 0.0022 )	%  40-60  >70  2  95-98
	    ( 0.5005 0.183 0.1464 0.0938 0.0481 0.0197 0.0065 0.0021 ))	%  40-60  >70  2  >98
	   (( 0.3214 0.1836 0.1825 0.1452 0.0925 0.0472 0.0193 0.0083 )	%  40-60  >70  3  <85
	    ( 0.3345 0.1849 0.1808 0.1414 0.0886 0.0444 0.0178 0.0076 )	%  40-60  >70  3  85-90
	    ( 0.3433 0.1857 0.1795 0.1389 0.086 0.0426 0.0169 0.0071 )	%  40-60  >70  3  90-95
	    ( 0.3504 0.1862 0.1784 0.1368 0.084 0.0413 0.0162 0.0067 )	%  40-60  >70  3  95-98
	    ( 0.3549 0.1865 0.1777 0.1355 0.0827 0.0404 0.0158 0.0065 ))	%  40-60  >70  3  >98
	   (( 0.2013 0.1578 0.1868 0.177 0.1343 0.0815 0.0396 0.0217 )	%  40-60  >70  4  <85
	    ( 0.2116 0.1611 0.1875 0.1747 0.1303 0.0778 0.0372 0.0199 )	%  40-60  >70  4  85-90
	    ( 0.2187 0.1632 0.1878 0.173 0.1276 0.0753 0.0356 0.0187 )	%  40-60  >70  4  90-95
	    ( 0.2244 0.1649 0.188 0.1717 0.1254 0.0734 0.0344 0.0179 )	%  40-60  >70  4  95-98
	    ( 0.228 0.1659 0.1881 0.1708 0.1241 0.0722 0.0336 0.0174 ))	%  40-60  >70  4  >98
	   (( 0.1131 0.1184 0.1668 0.1882 0.1699 0.1228 0.0711 0.0498 )	%  40-60  >70  5  <85
	    ( 0.1202 0.1224 0.1696 0.1882 0.1671 0.1188 0.0676 0.0462 )	%  40-60  >70  5  85-90
	    ( 0.1251 0.1251 0.1714 0.188 0.1651 0.116 0.0653 0.0439 )	%  40-60  >70  5  90-95
	    ( 0.1291 0.1273 0.1728 0.1879 0.1635 0.1139 0.0635 0.0421 )	%  40-60  >70  5  95-98
	    ( 0.1316 0.1286 0.1737 0.1877 0.1624 0.1125 0.0624 0.0411 ))	%  40-60  >70  5  >98
	   (( 0.0566 0.0774 0.1299 0.1744 0.1876 0.1614 0.1112 0.1014 )	%  40-60  >70  6  <85
	    ( 0.0609 0.0811 0.1339 0.1768 0.1869 0.1582 0.1071 0.0952 )	%  40-60  >70  6  85-90
	    ( 0.0638 0.0837 0.1365 0.1782 0.1863 0.1559 0.1044 0.0911 )	%  40-60  >70  6  90-95
	    ( 0.0663 0.0857 0.1386 0.1793 0.1858 0.1541 0.1023 0.088 )	%  40-60  >70  6  95-98
	    ( 0.0678 0.087 0.1399 0.18 0.1854 0.1529 0.1009 0.0861 ))	%  40-60  >70  6  >98
	   (( 0.0252 0.0442 0.0882 0.1411 0.1806 0.185 0.1518 0.184 )	%  40-60  >70  7  <85
	    ( 0.0274 0.0469 0.0921 0.1449 0.1823 0.1837 0.1482 0.1746 )	%  40-60  >70  7  85-90
	    ( 0.0289 0.0488 0.0948 0.1473 0.1834 0.1827 0.1457 0.1684 )	%  40-60  >70  7  90-95
	    ( 0.0302 0.0503 0.0969 0.1493 0.1841 0.1818 0.1437 0.1636 )	%  40-60  >70  7  95-98
	    ( 0.0311 0.0513 0.0982 0.1505 0.1846 0.1812 0.1424 0.1607 ))	%  40-60  >70  7  >98
	   (( 0.0099 0.022 0.0523 0.0995 0.1516 0.185 0.1807 0.2992 )	%  40-60  >70  8  <85
	    ( 0.0109 0.0236 0.0553 0.1035 0.1551 0.1861 0.1787 0.2867 )	%  40-60  >70  8  85-90
	    ( 0.0116 0.0248 0.0574 0.1062 0.1574 0.1867 0.1773 0.2786 )	%  40-60  >70  8  90-95
	    ( 0.0122 0.0258 0.0591 0.1084 0.1592 0.1871 0.1761 0.2721 )	%  40-60  >70  8  95-98
	    ( 0.0126 0.0264 0.0602 0.1098 0.1603 0.1873 0.1753 0.2682 ))	%  40-60  >70  8  >98
	   (( 0.0034 0.0095 0.027 0.0612 0.111 0.1613 0.1875 0.439 )	%  40-60  >70  9  <85
	    ( 0.0038 0.0104 0.0289 0.0645 0.1151 0.1644 0.188 0.4248 )	%  40-60  >70  9  85-90
	    ( 0.0041 0.011 0.0303 0.0668 0.1178 0.1664 0.1881 0.4154 )	%  40-60  >70  9  90-95
	    ( 0.0043 0.0115 0.0314 0.0686 0.12 0.168 0.1882 0.4079 )	%  40-60  >70  9  95-98
	    ( 0.0045 0.0118 0.0321 0.0698 0.1214 0.1689 0.1882 0.4032 ))))	%  40-60  >70  9  >98
	 (((( 0.1405 0.1331 0.1763 0.187 0.1588 0.1079 0.0587 0.0376 )	%  60-80  <25  1  <85
	    ( 0.2693 0.1755 0.1873 0.16 0.1094 0.0599 0.0262 0.0125 )	%  60-80  <25  1  85-90
	    ( 0.3797 0.1878 0.1734 0.1282 0.0759 0.036 0.0136 0.0054 )	%  60-80  <25  1  90-95
	    ( 0.4765 0.1853 0.1524 0.1004 0.053 0.0223 0.0075 0.0026 )	%  60-80  <25  1  95-98
	    ( 0.538 0.1782 0.1364 0.0836 0.041 0.0161 0.0051 0.0016 ))	%  60-80  <25  1  >98
	   (( 0.0733 0.0914 0.1441 0.182 0.184 0.1489 0.0964 0.0799 )	%  60-80  <25  2  <85
	    ( 0.1615 0.1428 0.1814 0.1845 0.1502 0.0979 0.051 0.0308 )	%  60-80  <25  2  85-90
	    ( 0.2484 0.171 0.1881 0.1656 0.1167 0.0658 0.0297 0.0147 )	%  60-80  <25  2  90-95
	    ( 0.3327 0.1847 0.181 0.142 0.0891 0.0448 0.018 0.0077 )	%  60-80  <25  2  95-98
	    ( 0.3905 0.188 0.1714 0.1251 0.0731 0.0342 0.0128 0.005 ))	%  60-80  <25  2  >98
	   (( 0.034 0.0547 0.1027 0.1545 0.1859 0.1791 0.1381 0.151 )	%  60-80  <25  3  <85
	    ( 0.0867 0.1013 0.1532 0.1855 0.1798 0.1395 0.0866 0.0674 )	%  60-80  <25  3  85-90
	    ( 0.1462 0.1359 0.1779 0.1865 0.1564 0.1051 0.0565 0.0356 )	%  60-80  <25  3  90-95
	    ( 0.2102 0.1607 0.1874 0.175 0.1308 0.0783 0.0375 0.0201 )	%  60-80  <25  3  95-98
	    ( 0.2574 0.1731 0.1878 0.1632 0.1135 0.0632 0.0281 0.0137 ))	%  60-80  <25  3  >98
	   (( 0.014 0.0286 0.0639 0.1143 0.1638 0.1879 0.1725 0.255 )	%  60-80  <25  4  <85
	    ( 0.0414 0.0627 0.1129 0.1627 0.1878 0.1734 0.1283 0.1309 )	%  60-80  <25  4  85-90
	    ( 0.0769 0.0942 0.1468 0.1831 0.1829 0.1463 0.0936 0.0762 )	%  60-80  <25  4  90-95
	    ( 0.1192 0.1219 0.1693 0.1882 0.1675 0.1193 0.068 0.0467 )	%  60-80  <25  4  95-98
	    ( 0.1528 0.1389 0.1795 0.1857 0.1537 0.1019 0.0541 0.0334 ))	%  60-80  <25  4  >98
	   (( 0.0051 0.013 0.0346 0.0738 0.1259 0.172 0.188 0.3876 )	%  60-80  <25  5  <85
	    ( 0.0175 0.0338 0.0725 0.1245 0.171 0.1881 0.1656 0.227 )	%  60-80  <25  5  85-90
	    ( 0.036 0.0569 0.1056 0.1569 0.1866 0.1776 0.1354 0.1451 )	%  60-80  <25  5  90-95
	    ( 0.0603 0.0806 0.1333 0.1765 0.187 0.1586 0.1077 0.096 )	%  60-80  <25  5  95-98
	    ( 0.0811 0.0973 0.1496 0.1843 0.1816 0.1433 0.0905 0.0723 ))	%  60-80  <25  5  >98
	   (( 0.0016 0.0052 0.0164 0.0416 0.0844 0.1373 0.1786 0.535 )	%  60-80  <25  6  <85
	    ( 0.0065 0.0159 0.0406 0.0831 0.1359 0.1779 0.1865 0.3537 )	%  60-80  <25  6  85-90
	    ( 0.0149 0.03 0.0663 0.1172 0.166 0.1881 0.1707 0.2469 )	%  60-80  <25  6  90-95
	    ( 0.0271 0.0465 0.0916 0.1443 0.1821 0.1839 0.1487 0.1758 )	%  60-80  <25  6  95-98
	    ( 0.0383 0.0594 0.1088 0.1595 0.1872 0.1759 0.1323 0.1388 ))	%  60-80  <25  6  >98
	   (( 0.0005 0.0018 0.0068 0.0204 0.0494 0.0955 0.1481 0.6777 )	%  60-80  <25  7  <85
	    ( 0.0022 0.0065 0.0199 0.0483 0.0941 0.1467 0.1831 0.4991 )	%  60-80  <25  7  85-90
	    ( 0.0054 0.0138 0.0363 0.0764 0.1288 0.1738 0.1877 0.3779 )	%  60-80  <25  7  90-95
	    ( 0.0108 0.0234 0.0549 0.103 0.1547 0.186 0.179 0.2884 )	%  60-80  <25  7  95-98
	    ( 0.016 0.0316 0.069 0.1204 0.1682 0.1882 0.1685 0.2381 ))	%  60-80  <25  7  >98
	   (( 0.0001 0.0005 0.0024 0.0087 0.0252 0.058 0.107 0.798 )	%  60-80  <25  8  <85
	    ( 0.0006 0.0023 0.0085 0.0245 0.0569 0.1056 0.1569 0.6448 )	%  60-80  <25  8  85-90
	    ( 0.0018 0.0055 0.0173 0.0434 0.0871 0.14 0.18 0.5249 )	%  60-80  <25  8  90-95
	    ( 0.0038 0.0103 0.0287 0.0641 0.1146 0.164 0.1879 0.4267 )	%  60-80  <25  8  95-98
	    ( 0.0059 0.0147 0.0381 0.0793 0.1319 0.1756 0.1873 0.3672 ))	%  60-80  <25  8  >98
	   (( 0.0001 0.0001 0.0008 0.0033 0.0112 0.0307 0.0675 0.8864 )	%  60-80  <25  9  <85
	    ( 0.0002 0.0007 0.0031 0.0109 0.03 0.0662 0.1172 0.7717 )	%  60-80  <25  9  85-90
	    ( 0.0005 0.0019 0.0072 0.0215 0.0514 0.0984 0.1506 0.6685 )	%  60-80  <25  9  90-95
	    ( 0.0012 0.0039 0.0131 0.0348 0.074 0.1262 0.1721 0.5748 )	%  60-80  <25  9  95-98
	    ( 0.0019 0.0059 0.0184 0.0455 0.0902 0.143 0.1815 0.5136 )))	%  60-80  <25  9  >98
	  ((( 0.1204 0.1226 0.1697 0.1882 0.167 0.1186 0.0675 0.0461 )	%  60-80  25-40  1  <85
	    ( 0.2048 0.159 0.1871 0.1762 0.1329 0.0802 0.0388 0.0211 )	%  60-80  25-40  1  85-90
	    ( 0.2768 0.1769 0.1868 0.1579 0.1068 0.0579 0.0251 0.0118 )	%  60-80  25-40  1  90-95
	    ( 0.3421 0.1856 0.1797 0.1392 0.0864 0.0429 0.017 0.0071 )	%  60-80  25-40  1  95-98
	    ( 0.3857 0.1879 0.1723 0.1265 0.0743 0.035 0.0132 0.0051 ))	%  60-80  25-40  1  >98
	   (( 0.061 0.0813 0.134 0.1769 0.1869 0.158 0.107 0.095 )	%  60-80  25-40  2  <85
	    ( 0.1155 0.1197 0.1678 0.1882 0.169 0.1214 0.0699 0.0485 )	%  60-80  25-40  2  85-90
	    ( 0.1671 0.1451 0.1824 0.1836 0.1479 0.0954 0.0492 0.0293 )	%  60-80  25-40  2  90-95
	    ( 0.2177 0.1629 0.1878 0.1733 0.128 0.0757 0.0358 0.0189 )	%  60-80  25-40  2  95-98
	    ( 0.2534 0.1722 0.188 0.1643 0.1149 0.0643 0.0288 0.0141 ))	%  60-80  25-40  2  >98
	   (( 0.0275 0.047 0.0923 0.145 0.1824 0.1836 0.148 0.1742 )	%  60-80  25-40  3  <85
	    ( 0.0581 0.0787 0.1312 0.1753 0.1874 0.1603 0.1098 0.0993 )	%  60-80  25-40  3  85-90
	    ( 0.0903 0.1038 0.1554 0.1862 0.1785 0.1371 0.0842 0.0645 )	%  60-80  25-40  3  90-95
	    ( 0.1244 0.1248 0.1712 0.1881 0.1654 0.1164 0.0656 0.0442 )	%  60-80  25-40  3  95-98
	    ( 0.1498 0.1376 0.1788 0.186 0.155 0.1033 0.0551 0.0344 ))	%  60-80  25-40  3  >98
	   (( 0.0109 0.0237 0.0554 0.1037 0.1552 0.1861 0.1786 0.2863 )	%  60-80  25-40  4  <85
	    ( 0.0259 0.0451 0.0895 0.1424 0.1812 0.1846 0.1506 0.1808 )	%  60-80  25-40  4  85-90
	    ( 0.0434 0.0648 0.1154 0.1646 0.188 0.1718 0.1257 0.1262 )	%  60-80  25-40  4  90-95
	    ( 0.0634 0.0833 0.1361 0.178 0.1864 0.1562 0.1048 0.0917 )	%  60-80  25-40  4  95-98
	    ( 0.0792 0.0959 0.1483 0.1838 0.1822 0.1447 0.0919 0.074 ))	%  60-80  25-40  4  >98
	   (( 0.0038 0.0104 0.029 0.0646 0.1153 0.1645 0.188 0.4243 )	%  60-80  25-40  5  <85
	    ( 0.0102 0.0225 0.0533 0.1009 0.1528 0.1854 0.18 0.2949 )	%  60-80  25-40  5  85-90
	    ( 0.0185 0.0352 0.0748 0.127 0.1727 0.1879 0.1637 0.2203 )	%  60-80  25-40  5  90-95
	    ( 0.0287 0.0485 0.0944 0.147 0.1832 0.1828 0.146 0.1693 )	%  60-80  25-40  5  95-98
	    ( 0.0372 0.0583 0.1073 0.1583 0.1869 0.1767 0.1337 0.1416 ))	%  60-80  25-40  5  >98
	   (( 0.0012 0.004 0.0133 0.0352 0.0746 0.1268 0.1725 0.5724 )	%  60-80  25-40  6  <85
	    ( 0.0036 0.0098 0.0276 0.0623 0.1124 0.1624 0.1877 0.4342 )	%  60-80  25-40  6  85-90
	    ( 0.007 0.0167 0.0422 0.0854 0.1383 0.1792 0.1858 0.3453 )	%  60-80  25-40  6  90-95
	    ( 0.0115 0.0247 0.0571 0.1059 0.1571 0.1866 0.1775 0.2797 )	%  60-80  25-40  6  95-98
	    ( 0.0155 0.0309 0.0677 0.119 0.1672 0.1882 0.1695 0.242 ))	%  60-80  25-40  6  >98
	   (( 0.0003 0.0013 0.0053 0.0167 0.0421 0.0853 0.1381 0.7108 )	%  60-80  25-40  7  <85
	    ( 0.0011 0.0037 0.0125 0.0336 0.0721 0.124 0.1707 0.5822 )	%  60-80  25-40  7  85-90
	    ( 0.0023 0.0069 0.0208 0.0501 0.0966 0.149 0.184 0.4902 )	%  60-80  25-40  7  90-95
	    ( 0.0041 0.0109 0.0301 0.0665 0.1175 0.1662 0.1881 0.4167 )	%  60-80  25-40  7  95-98
	    ( 0.0057 0.0143 0.0373 0.078 0.1305 0.1748 0.1875 0.372 ))	%  60-80  25-40  7  >98
	   (( 0.0001 0.0004 0.0018 0.0069 0.0208 0.05 0.0964 0.8236 )	%  60-80  25-40  8  <85
	    ( 0.0003 0.0012 0.0049 0.0158 0.0404 0.0826 0.1354 0.7193 )	%  60-80  25-40  8  85-90
	    ( 0.0007 0.0025 0.0089 0.0256 0.0589 0.1081 0.1589 0.6363 )	%  60-80  25-40  8  90-95
	    ( 0.0013 0.0042 0.0139 0.0364 0.0766 0.129 0.1739 0.5647 )	%  60-80  25-40  8  95-98
	    ( 0.0018 0.0058 0.0179 0.0446 0.0888 0.1416 0.1808 0.5187 ))	%  60-80  25-40  8  >98
	   (( 0.0001 0.0001 0.0006 0.0025 0.0089 0.0256 0.0587 0.9036 )	%  60-80  25-40  9  <85
	    ( 0.0001 0.0004 0.0017 0.0065 0.0197 0.048 0.0937 0.83 )	%  60-80  25-40  9  85-90
	    ( 0.0002 0.0008 0.0034 0.0114 0.0313 0.0684 0.1197 0.7649 )	%  60-80  25-40  9  90-95
	    ( 0.0003 0.0014 0.0056 0.0174 0.0436 0.0874 0.1402 0.7041 )	%  60-80  25-40  9  95-98
	    ( 0.0005 0.002 0.0075 0.0222 0.0527 0.1001 0.1522 0.6628 )))	%  60-80  25-40  9  >98
	  ((( 0.1074 0.1149 0.1643 0.188 0.1722 0.1262 0.0741 0.053 )	%  60-80  41-50  1  <85
	    ( 0.1649 0.1442 0.182 0.1839 0.1488 0.0963 0.0499 0.0299 )	%  60-80  41-50  1  85-90
	    ( 0.2127 0.1615 0.1876 0.1744 0.1299 0.0774 0.0369 0.0197 )	%  60-80  41-50  1  90-95
	    ( 0.2562 0.1728 0.1879 0.1635 0.1139 0.0635 0.0284 0.0138 )	%  60-80  41-50  1  95-98
	    ( 0.2856 0.1785 0.1862 0.1555 0.1039 0.0556 0.0238 0.011 ))	%  60-80  41-50  1  >98
	   (( 0.0533 0.0743 0.1265 0.1723 0.1879 0.1641 0.1146 0.1069 )	%  60-80  41-50  2  <85
	    ( 0.0889 0.1029 0.1546 0.1859 0.179 0.138 0.0852 0.0656 )	%  60-80  41-50  2  85-90
	    ( 0.1209 0.1229 0.1699 0.1882 0.1668 0.1183 0.0672 0.0458 )	%  60-80  41-50  2  90-95
	    ( 0.1519 0.1385 0.1793 0.1858 0.1541 0.1023 0.0544 0.0337 )	%  60-80  41-50  2  95-98
	    ( 0.1737 0.1478 0.1836 0.1825 0.1452 0.0925 0.0472 0.0276 ))	%  60-80  41-50  2  >98
	   (( 0.0234 0.0419 0.085 0.1378 0.1789 0.186 0.1547 0.1922 )	%  60-80  41-50  3  <85
	    ( 0.0426 0.064 0.1144 0.1639 0.1879 0.1725 0.1267 0.128 )	%  60-80  41-50  3  85-90
	    ( 0.0613 0.0815 0.1343 0.177 0.1868 0.1578 0.1067 0.0945 )	%  60-80  41-50  3  90-95
	    ( 0.0805 0.0968 0.1492 0.1841 0.1818 0.1437 0.091 0.0728 )	%  60-80  41-50  3  95-98
	    ( 0.0946 0.1068 0.1578 0.1868 0.177 0.1342 0.0815 0.0613 ))	%  60-80  41-50  3  >98
	   (( 0.0091 0.0206 0.0498 0.0961 0.1486 0.1839 0.1821 0.3097 )	%  60-80  41-50  4  <85
	    ( 0.0181 0.0347 0.0739 0.126 0.172 0.188 0.1644 0.2228 )	%  60-80  41-50  4  85-90
	    ( 0.0276 0.0472 0.0925 0.1453 0.1825 0.1835 0.1478 0.1736 )	%  60-80  41-50  4  90-95
	    ( 0.0379 0.0591 0.1084 0.1591 0.1871 0.1761 0.1327 0.1396 )	%  60-80  41-50  4  95-98
	    ( 0.0459 0.0672 0.1184 0.1668 0.1882 0.1699 0.1228 0.1208 ))	%  60-80  41-50  4  >98
	   (( 0.0031 0.0089 0.0254 0.0585 0.1076 0.1586 0.187 0.451 )	%  60-80  41-50  5  <85
	    ( 0.0068 0.0164 0.0416 0.0845 0.1374 0.1787 0.1861 0.3485 )	%  60-80  41-50  5  85-90
	    ( 0.011 0.0238 0.0556 0.104 0.1555 0.1862 0.1785 0.2854 )	%  60-80  41-50  5  90-95
	    ( 0.0158 0.0314 0.0686 0.12 0.1679 0.1882 0.1688 0.2392 )	%  60-80  41-50  5  95-98
	    ( 0.0197 0.0369 0.0774 0.1299 0.1745 0.1876 0.1614 0.2126 ))	%  60-80  41-50  5  >98
	   (( 0.0009 0.0033 0.0113 0.031 0.068 0.1192 0.1674 0.5987 )	%  60-80  41-50  6  <85
	    ( 0.0022 0.0068 0.0204 0.0494 0.0957 0.1482 0.1837 0.4936 )	%  60-80  41-50  6  85-90
	    ( 0.0039 0.0105 0.0292 0.0649 0.1156 0.1647 0.188 0.4233 )	%  60-80  41-50  6  90-95
	    ( 0.0058 0.0146 0.0379 0.0789 0.1315 0.1754 0.1873 0.3687 )	%  60-80  41-50  6  95-98
	    ( 0.0075 0.0177 0.0442 0.0882 0.1411 0.1806 0.185 0.3357 ))	%  60-80  41-50  6  >98
	   (( 0.0003 0.0011 0.0044 0.0144 0.0375 0.0782 0.1308 0.7335 )	%  60-80  41-50  7  <85
	    ( 0.0007 0.0024 0.0088 0.0252 0.0581 0.1071 0.1582 0.6396 )	%  60-80  41-50  7  85-90
	    ( 0.0012 0.004 0.0133 0.0353 0.0749 0.1271 0.1727 0.5714 )	%  60-80  41-50  7  90-95
	    ( 0.0019 0.0059 0.0182 0.0452 0.0898 0.1426 0.1813 0.5151 )	%  60-80  41-50  7  95-98
	    ( 0.0025 0.0074 0.022 0.0523 0.0995 0.1516 0.185 0.4797 ))	%  60-80  41-50  7  >98
	   (( 0.0001 0.0003 0.0015 0.0058 0.018 0.0447 0.0891 0.8406 )	%  60-80  41-50  8  <85
	    ( 0.0002 0.0008 0.0033 0.0112 0.0308 0.0676 0.1188 0.7675 )	%  60-80  41-50  8  85-90
	    ( 0.0003 0.0013 0.0053 0.0168 0.0423 0.0856 0.1384 0.7099 )	%  60-80  41-50  8  90-95
	    ( 0.0005 0.0021 0.0077 0.0226 0.0534 0.1011 0.153 0.6596 )	%  60-80  41-50  8  95-98
	    ( 0.0007 0.0027 0.0095 0.027 0.0612 0.1111 0.1613 0.6265 ))	%  60-80  41-50  8  >98
	   (( 0.0001 0.0001 0.0004 0.002 0.0075 0.0223 0.0529 0.9147 )	%  60-80  41-50  9  <85
	    ( 0.0001 0.0002 0.0011 0.0044 0.0142 0.0372 0.0778 0.8652 )	%  60-80  41-50  9  85-90
	    ( 0.0001 0.0004 0.0018 0.0069 0.0209 0.0502 0.0967 0.8229 )	%  60-80  41-50  9  90-95
	    ( 0.0001 0.0006 0.0028 0.0099 0.0278 0.0625 0.1127 0.7837 )	%  60-80  41-50  9  95-98
	    ( 0.0002 0.0009 0.0036 0.0122 0.0328 0.0709 0.1227 0.7567 )))	%  60-80  41-50  9  >98
	  ((( 0.0977 0.1088 0.1595 0.1872 0.1758 0.1322 0.0796 0.0591 )	%  60-80  51-60  1  <85
	    ( 0.1369 0.1313 0.1753 0.1873 0.1602 0.1097 0.0601 0.039 )	%  60-80  51-60  1  85-90
	    ( 0.1684 0.1457 0.1827 0.1834 0.1474 0.0948 0.0488 0.0289 )	%  60-80  51-60  1  90-95
	    ( 0.1966 0.1563 0.1864 0.178 0.1361 0.0833 0.0408 0.0226 )	%  60-80  51-60  1  95-98
	    ( 0.2157 0.1623 0.1877 0.1737 0.1287 0.0764 0.0362 0.0192 ))	%  60-80  51-60  1  >98
	   (( 0.0477 0.069 0.1204 0.1683 0.1882 0.1685 0.1207 0.1172 )	%  60-80  51-60  2  <85
	    ( 0.0711 0.0896 0.1425 0.1812 0.1846 0.1505 0.0982 0.0823 )	%  60-80  51-60  2  85-90
	    ( 0.0911 0.1044 0.1559 0.1863 0.1782 0.1365 0.0837 0.0639 )	%  60-80  51-60  2  90-95
	    ( 0.1099 0.1165 0.1654 0.1881 0.1712 0.1247 0.0727 0.0515 )	%  60-80  51-60  2  95-98
	    ( 0.123 0.124 0.1707 0.1881 0.1659 0.1172 0.0662 0.0449 ))	%  60-80  51-60  2  >98
	   (( 0.0206 0.0382 0.0793 0.1319 0.1757 0.1872 0.1598 0.2073 )	%  60-80  51-60  3  <85
	    ( 0.0328 0.0534 0.101 0.1529 0.1854 0.18 0.1398 0.1548 )	%  60-80  51-60  3  85-90
	    ( 0.0439 0.0653 0.116 0.1651 0.188 0.1715 0.1252 0.1251 )	%  60-80  51-60  3  90-95
	    ( 0.0548 0.0757 0.128 0.1733 0.1878 0.1629 0.1131 0.1044 )	%  60-80  51-60  3  95-98
	    ( 0.0626 0.0826 0.1354 0.1776 0.1866 0.1569 0.1056 0.0928 ))	%  60-80  51-60  3  >98
	   (( 0.0079 0.0184 0.0455 0.0902 0.143 0.1815 0.1844 0.3291 )	%  60-80  51-60  4  <85
	    ( 0.0134 0.0277 0.0624 0.1125 0.1624 0.1877 0.1737 0.2601 )	%  60-80  51-60  4  85-90
	    ( 0.0187 0.0356 0.0753 0.1276 0.173 0.1878 0.1632 0.2187 )	%  60-80  51-60  4  90-95
	    ( 0.0242 0.0429 0.0864 0.1393 0.1797 0.1856 0.1534 0.1885 )	%  60-80  51-60  4  95-98
	    ( 0.0283 0.048 0.0937 0.1463 0.1829 0.1831 0.1467 0.171 ))	%  60-80  51-60  4  >98
	   (( 0.0027 0.0077 0.0228 0.0538 0.1015 0.1534 0.1856 0.4724 )	%  60-80  51-60  5  <85
	    ( 0.0048 0.0125 0.0336 0.0722 0.1241 0.1708 0.1881 0.3937 )	%  60-80  51-60  5  85-90
	    ( 0.0071 0.0169 0.0426 0.086 0.1388 0.1795 0.1857 0.3434 )	%  60-80  51-60  5  90-95
	    ( 0.0095 0.0212 0.0509 0.0976 0.15 0.1844 0.1815 0.305 )	%  60-80  51-60  5  95-98
	    ( 0.0113 0.0243 0.0565 0.1051 0.1565 0.1865 0.1779 0.282 ))	%  60-80  51-60  5  >98
	   (( 0.0008 0.0028 0.01 0.028 0.0629 0.1131 0.1629 0.6195 )	%  60-80  51-60  6  <85
	    ( 0.0015 0.0049 0.0158 0.0404 0.0827 0.1355 0.1777 0.5413 )	%  60-80  51-60  6  85-90
	    ( 0.0023 0.007 0.021 0.0505 0.0972 0.1496 0.1842 0.4881 )	%  60-80  51-60  6  90-95
	    ( 0.0033 0.0091 0.0261 0.0597 0.1091 0.1598 0.1872 0.4456 )	%  60-80  51-60  6  95-98
	    ( 0.004 0.0107 0.0297 0.0658 0.1167 0.1656 0.1881 0.4193 ))	%  60-80  51-60  6  >98
	   (( 0.0002 0.0009 0.0038 0.0127 0.034 0.0727 0.1247 0.751 )	%  60-80  51-60  7  <85
	    ( 0.0004 0.0017 0.0065 0.0197 0.0481 0.0938 0.1464 0.6834 )	%  60-80  51-60  7  85-90
	    ( 0.0007 0.0025 0.0091 0.0259 0.0593 0.1087 0.1594 0.6344 )	%  60-80  51-60  7  90-95
	    ( 0.001 0.0034 0.0117 0.0318 0.0693 0.1208 0.1685 0.5935 )	%  60-80  51-60  7  95-98
	    ( 0.0012 0.0041 0.0136 0.036 0.0759 0.1283 0.1734 0.5674 ))	%  60-80  51-60  7  >98
	   (( 0.0001 0.0003 0.0013 0.005 0.016 0.0408 0.0833 0.8533 )	%  60-80  51-60  8  <85
	    ( 0.0001 0.0005 0.0023 0.0084 0.0244 0.0566 0.1052 0.8025 )	%  60-80  51-60  8  85-90
	    ( 0.0002 0.0008 0.0034 0.0116 0.0316 0.0689 0.1203 0.7633 )	%  60-80  51-60  8  90-95
	    ( 0.0003 0.0011 0.0046 0.0148 0.0384 0.0796 0.1322 0.729 )	%  60-80  51-60  8  95-98
	    ( 0.0003 0.0014 0.0055 0.0171 0.0431 0.0866 0.1395 0.7065 ))	%  60-80  51-60  8  >98
	   (( 0.0001 0.0001 0.0004 0.0017 0.0066 0.02 0.0485 0.9228 )	%  60-80  51-60  9  <85
	    ( 0.0001 0.0001 0.0007 0.0031 0.0108 0.0298 0.066 0.8895 )	%  60-80  51-60  9  85-90
	    ( 0.0001 0.0002 0.0011 0.0045 0.0147 0.0381 0.0792 0.8622 )	%  60-80  51-60  9  90-95
	    ( 0.0001 0.0003 0.0016 0.006 0.0185 0.0458 0.0905 0.8373 )	%  60-80  51-60  9  95-98
	    ( 0.0001 0.0004 0.0019 0.0071 0.0213 0.051 0.0979 0.8203 )))	%  60-80  51-60  9  >98
	  ((( 0.1883 0.1533 0.1855 0.1797 0.1394 0.0865 0.043 0.0243 )	%  60-80  61-70  1  <85
	    ( 0.2268 0.1655 0.1881 0.1711 0.1246 0.0726 0.0339 0.0175 )	%  60-80  61-70  1  85-90
	    ( 0.2547 0.1725 0.1879 0.1639 0.1144 0.064 0.0286 0.014 )	%  60-80  61-70  1  90-95
	    ( 0.2783 0.1772 0.1867 0.1575 0.1063 0.0575 0.0249 0.0116 )	%  60-80  61-70  1  95-98
	    ( 0.2936 0.1798 0.1855 0.1532 0.1013 0.0536 0.0227 0.0103 ))	%  60-80  61-70  1  >98
	   (( 0.1043 0.113 0.1628 0.1878 0.1734 0.1281 0.0758 0.0548 )	%  60-80  61-70  2  <85
	    ( 0.1308 0.1282 0.1734 0.1878 0.1628 0.113 0.0627 0.0414 )	%  60-80  61-70  2  85-90
	    ( 0.1508 0.138 0.179 0.1859 0.1545 0.1028 0.0548 0.0341 )	%  60-80  61-70  2  90-95
	    ( 0.1682 0.1456 0.1826 0.1834 0.1474 0.0949 0.0489 0.029 )	%  60-80  61-70  2  95-98
	    ( 0.1798 0.1502 0.1845 0.1814 0.1428 0.09 0.0454 0.0261 ))	%  60-80  61-70  2  >98
	   (( 0.0515 0.0726 0.1246 0.1711 0.1881 0.1655 0.1166 0.1101 )	%  60-80  61-70  3  <85
	    ( 0.0673 0.0866 0.1394 0.1798 0.1855 0.1533 0.1014 0.0868 )	%  60-80  61-70  3  85-90
	    ( 0.0798 0.0963 0.1488 0.1839 0.182 0.1442 0.0915 0.0734 )	%  60-80  61-70  3  90-95
	    ( 0.091 0.1043 0.1558 0.1863 0.1783 0.1366 0.0838 0.0639 )	%  60-80  61-70  3  95-98
	    ( 0.0986 0.1094 0.16 0.1873 0.1755 0.1317 0.0791 0.0585 ))	%  60-80  61-70  3  >98
	   (( 0.0225 0.0407 0.0832 0.136 0.178 0.1864 0.1563 0.1969 )	%  60-80  61-70  4  <85
	    ( 0.0308 0.051 0.0978 0.1501 0.1844 0.1814 0.1429 0.1617 )	%  60-80  61-70  4  85-90
	    ( 0.0376 0.0586 0.1078 0.1587 0.187 0.1764 0.1332 0.1406 )	%  60-80  61-70  4  90-95
	    ( 0.0438 0.0652 0.1159 0.165 0.188 0.1715 0.1252 0.1252 )	%  60-80  61-70  4  95-98
	    ( 0.0482 0.0695 0.121 0.1687 0.1882 0.1681 0.1202 0.1162 ))	%  60-80  61-70  4  >98
	   (( 0.0087 0.0199 0.0484 0.0943 0.1469 0.1832 0.1829 0.3158 )	%  60-80  61-70  5  <85
	    ( 0.0125 0.0262 0.0598 0.1093 0.1599 0.1873 0.1756 0.2695 )	%  60-80  61-70  5  85-90
	    ( 0.0157 0.0311 0.0682 0.1194 0.1676 0.1882 0.1692 0.2407 )	%  60-80  61-70  5  90-95
	    ( 0.0187 0.0355 0.0752 0.1275 0.173 0.1878 0.1633 0.2189 )	%  60-80  61-70  5  95-98
	    ( 0.0209 0.0385 0.0798 0.1325 0.176 0.1871 0.1593 0.2059 ))	%  60-80  61-70  5  >98
	   (( 0.003 0.0085 0.0246 0.057 0.1057 0.157 0.1866 0.4577 )	%  60-80  61-70  6  <85
	    ( 0.0044 0.0117 0.0319 0.0694 0.1209 0.1686 0.1882 0.4048 )	%  60-80  61-70  6  85-90
	    ( 0.0058 0.0144 0.0376 0.0784 0.131 0.1751 0.1874 0.3704 )	%  60-80  61-70  6  90-95
	    ( 0.0071 0.0169 0.0426 0.0859 0.1388 0.1794 0.1857 0.3436 )	%  60-80  61-70  6  95-98
	    ( 0.008 0.0186 0.0459 0.0908 0.1435 0.1817 0.1842 0.3272 ))	%  60-80  61-70  6  >98
	   (( 0.0009 0.0032 0.0109 0.03 0.0664 0.1173 0.166 0.6053 )	%  60-80  61-70  7  <85
	    ( 0.0014 0.0046 0.0148 0.0385 0.0797 0.1324 0.1759 0.5527 )	%  60-80  61-70  7  85-90
	    ( 0.0019 0.0058 0.0181 0.0449 0.0893 0.1421 0.1811 0.517 )	%  60-80  61-70  7  90-95
	    ( 0.0023 0.007 0.021 0.0505 0.0971 0.1495 0.1842 0.4883 )	%  60-80  61-70  7  95-98
	    ( 0.0027 0.0078 0.023 0.0542 0.1021 0.1539 0.1857 0.4704 ))	%  60-80  61-70  7  >98
	   (( 0.0002 0.001 0.0042 0.0138 0.0363 0.0765 0.1289 0.739 )	%  60-80  61-70  8  <85
	    ( 0.0004 0.0016 0.006 0.0186 0.0459 0.0907 0.1435 0.6935 )	%  60-80  61-70  8  85-90
	    ( 0.0005 0.002 0.0076 0.0224 0.0531 0.1006 0.1526 0.6613 )	%  60-80  61-70  8  90-95
	    ( 0.0007 0.0025 0.009 0.0259 0.0593 0.1086 0.1594 0.6346 )	%  60-80  61-70  8  95-98
	    ( 0.0008 0.0029 0.0101 0.0283 0.0634 0.1137 0.1633 0.6176 ))	%  60-80  61-70  8  >98
	   (( 0.0001 0.0003 0.0014 0.0055 0.0173 0.0435 0.0872 0.8446 )	%  60-80  61-70  9  <85
	    ( 0.0001 0.0005 0.0021 0.0078 0.023 0.0542 0.102 0.8103 )	%  60-80  61-70  9  85-90
	    ( 0.0001 0.0006 0.0028 0.0098 0.0275 0.0621 0.1121 0.785 )	%  60-80  61-70  9  90-95
	    ( 0.0002 0.0008 0.0034 0.0116 0.0315 0.0688 0.1202 0.7634 )	%  60-80  61-70  9  95-98
	    ( 0.0002 0.0009 0.0038 0.0128 0.0343 0.0733 0.1253 0.7494 )))	%  60-80  61-70  9  >98
	  ((( 0.512 0.1817 0.1434 0.0906 0.0458 0.0186 0.006 0.0019 )	%  60-80  >70  1  <85
	    ( 0.5264 0.1798 0.1396 0.0867 0.0431 0.0172 0.0055 0.0017 )	%  60-80  >70  1  85-90
	    ( 0.536 0.1785 0.137 0.0842 0.0414 0.0163 0.0051 0.0016 )	%  60-80  >70  1  90-95
	    ( 0.5436 0.1774 0.1349 0.0821 0.04 0.0156 0.0049 0.0015 )	%  60-80  >70  1  95-98
	    ( 0.5484 0.1766 0.1336 0.0809 0.0392 0.0152 0.0047 0.0014 ))	%  60-80  >70  1  >98
	   (( 0.3657 0.1872 0.1759 0.1323 0.0797 0.0384 0.0148 0.006 )	%  60-80  >70  2  <85
	    ( 0.3794 0.1878 0.1735 0.1283 0.076 0.036 0.0137 0.0054 )	%  60-80  >70  2  85-90
	    ( 0.3886 0.188 0.1718 0.1256 0.0736 0.0345 0.0129 0.005 )	%  60-80  >70  2  90-95
	    ( 0.396 0.1881 0.1704 0.1235 0.0716 0.0333 0.0124 0.0048 )	%  60-80  >70  2  95-98
	    ( 0.4006 0.1882 0.1694 0.1221 0.0705 0.0325 0.012 0.0046 ))	%  60-80  >70  2  >98
	   (( 0.2368 0.1682 0.1882 0.1686 0.1209 0.0694 0.0319 0.0162 )	%  60-80  >70  3  <85
	    ( 0.2481 0.171 0.1881 0.1656 0.1168 0.0659 0.0298 0.0148 )	%  60-80  >70  3  85-90
	    ( 0.2558 0.1727 0.1879 0.1636 0.1141 0.0636 0.0284 0.0139 )	%  60-80  >70  3  90-95
	    ( 0.262 0.1741 0.1876 0.1619 0.1119 0.0619 0.0274 0.0132 )	%  60-80  >70  3  95-98
	    ( 0.266 0.1749 0.1875 0.1609 0.1105 0.0608 0.0267 0.0128 ))	%  60-80  >70  3  >98
	   (( 0.1379 0.1318 0.1756 0.1873 0.1599 0.1092 0.0598 0.0386 )	%  60-80  >70  4  <85
	    ( 0.146 0.1358 0.1778 0.1865 0.1565 0.1052 0.0566 0.0357 )	%  60-80  >70  4  85-90
	    ( 0.1516 0.1384 0.1792 0.1858 0.1542 0.1025 0.0545 0.0338 )	%  60-80  >70  4  90-95
	    ( 0.1561 0.1404 0.1803 0.1852 0.1523 0.1003 0.0529 0.0324 )	%  60-80  >70  4  95-98
	    ( 0.159 0.1417 0.1809 0.1848 0.1512 0.099 0.0519 0.0315 ))	%  60-80  >70  4  >98
	   (( 0.0717 0.0901 0.1429 0.1814 0.1844 0.15 0.0977 0.0817 )	%  60-80  >70  5  <85
	    ( 0.0768 0.094 0.1467 0.1831 0.183 0.1464 0.0937 0.0764 )	%  60-80  >70  5  85-90
	    ( 0.0803 0.0967 0.1491 0.1841 0.1819 0.1439 0.0911 0.073 )	%  60-80  >70  5  90-95
	    ( 0.0832 0.0988 0.151 0.1848 0.1809 0.1418 0.089 0.0703 )	%  60-80  >70  5  95-98
	    ( 0.0851 0.1002 0.1522 0.1852 0.1803 0.1406 0.0877 0.0687 ))	%  60-80  >70  5  >98
	   (( 0.0331 0.0537 0.1014 0.1533 0.1855 0.1797 0.1394 0.1537 )	%  60-80  >70  6  <85
	    ( 0.0359 0.0568 0.1055 0.1568 0.1865 0.1777 0.1355 0.1453 )	%  60-80  >70  6  85-90
	    ( 0.0378 0.0589 0.1082 0.159 0.1871 0.1762 0.1328 0.1399 )	%  60-80  >70  6  90-95
	    ( 0.0395 0.0607 0.1104 0.1608 0.1874 0.1749 0.1307 0.1357 )	%  60-80  >70  6  95-98
	    ( 0.0405 0.0618 0.1117 0.1618 0.1876 0.1741 0.1294 0.133 ))	%  60-80  >70  6  >98
	   (( 0.0136 0.0279 0.0628 0.113 0.1628 0.1878 0.1734 0.2588 )	%  60-80  >70  7  <85
	    ( 0.0149 0.0299 0.0662 0.1171 0.1659 0.1881 0.1708 0.2472 )	%  60-80  >70  7  85-90
	    ( 0.0158 0.0313 0.0685 0.1198 0.1678 0.1882 0.1689 0.2396 )	%  60-80  >70  7  90-95
	    ( 0.0166 0.0325 0.0703 0.122 0.1693 0.1882 0.1674 0.2337 )	%  60-80  >70  7  95-98
	    ( 0.0171 0.0332 0.0715 0.1233 0.1703 0.1881 0.1664 0.23 ))	%  60-80  >70  7  >98
	   (( 0.0049 0.0127 0.0339 0.0726 0.1246 0.1711 0.1881 0.3921 )	%  60-80  >70  8  <85
	    ( 0.0054 0.0138 0.0362 0.0763 0.1287 0.1737 0.1877 0.3783 )	%  60-80  >70  8  85-90
	    ( 0.0058 0.0145 0.0378 0.0787 0.1313 0.1753 0.1873 0.3692 )	%  60-80  >70  8  90-95
	    ( 0.0061 0.0152 0.0391 0.0807 0.1334 0.1765 0.187 0.3619 )	%  60-80  >70  8  95-98
	    ( 0.0064 0.0156 0.0399 0.082 0.1348 0.1773 0.1867 0.3574 ))	%  60-80  >70  8  >98
	   (( 0.0016 0.005 0.016 0.0407 0.0832 0.136 0.178 0.5396 )	%  60-80  >70  9  <85
	    ( 0.0017 0.0055 0.0173 0.0433 0.087 0.1399 0.18 0.5252 )	%  60-80  >70  9  85-90
	    ( 0.0019 0.0059 0.0182 0.0451 0.0896 0.1424 0.1812 0.5156 )	%  60-80  >70  9  90-95
	    ( 0.002 0.0062 0.019 0.0466 0.0917 0.1445 0.1821 0.508 )	%  60-80  >70  9  95-98
	    ( 0.0021 0.0064 0.0194 0.0475 0.093 0.1457 0.1827 0.5032 ))))	%  60-80  >70  9  >98
	 (((( 0.0004 0.0018 0.0067 0.0202 0.049 0.0951 0.1477 0.679 )	%  80-100  <25  1  <85
	    ( 0.0021 0.0065 0.0197 0.048 0.0937 0.1463 0.183 0.5007 )	%  80-100  <25  1  85-90
	    ( 0.0054 0.0137 0.036 0.076 0.1283 0.1735 0.1878 0.3793 )	%  80-100  <25  1  90-95
	    ( 0.0106 0.0232 0.0546 0.1025 0.1543 0.1858 0.1792 0.2897 )	%  80-100  <25  1  95-98
	    ( 0.0158 0.0314 0.0686 0.12 0.1679 0.1882 0.1688 0.2393 ))	%  80-100  <25  1  >98
	   (( 0.0001 0.0005 0.0024 0.0087 0.025 0.0577 0.1066 0.7991 )	%  80-100  <25  2  <85
	    ( 0.0006 0.0023 0.0084 0.0243 0.0565 0.1051 0.1565 0.6462 )	%  80-100  <25  2  85-90
	    ( 0.0017 0.0055 0.0172 0.0431 0.0867 0.1396 0.1798 0.5264 )	%  80-100  <25  2  90-95
	    ( 0.0037 0.0102 0.0285 0.0637 0.1141 0.1637 0.1879 0.4282 )	%  80-100  <25  2  95-98
	    ( 0.0058 0.0146 0.0379 0.0789 0.1315 0.1754 0.1873 0.3687 ))	%  80-100  <25  2  >98
	   (( 0.0001 0.0001 0.0008 0.0032 0.0111 0.0305 0.0671 0.8872 )	%  80-100  <25  3  <85
	    ( 0.0002 0.0007 0.0031 0.0108 0.0298 0.0659 0.1168 0.7729 )	%  80-100  <25  3  85-90
	    ( 0.0005 0.0019 0.0071 0.0213 0.0511 0.0979 0.1502 0.6698 )	%  80-100  <25  3  90-95
	    ( 0.0011 0.0039 0.013 0.0345 0.0736 0.1257 0.1718 0.5763 )	%  80-100  <25  3  95-98
	    ( 0.0019 0.0059 0.0182 0.0452 0.0898 0.1426 0.1813 0.5151 ))	%  80-100  <25  3  >98
	   (( 0.0001 0.0001 0.0002 0.001 0.0043 0.0141 0.0368 0.9435 )	%  80-100  <25  4  <85
	    ( 0.0001 0.0002 0.001 0.0041 0.0137 0.036 0.076 0.869 )	%  80-100  <25  4  85-90
	    ( 0.0001 0.0006 0.0026 0.0092 0.0263 0.0599 0.1095 0.7918 )	%  80-100  <25  4  90-95
	    ( 0.0003 0.0013 0.0051 0.0163 0.0414 0.0842 0.1371 0.7142 )	%  80-100  <25  4  95-98
	    ( 0.0005 0.0021 0.0077 0.0226 0.0534 0.1011 0.153 0.6596 ))	%  80-100  <25  4  >98
	   (( 0.0001 0.0001 0.0001 0.0003 0.0014 0.0057 0.0176 0.9749 )	%  80-100  <25  5  <85
	    ( 0.0001 0.0001 0.0003 0.0014 0.0055 0.0172 0.0431 0.9325 )	%  80-100  <25  5  85-90
	    ( 0.0001 0.0002 0.0008 0.0035 0.0118 0.032 0.0696 0.8822 )	%  80-100  <25  5  90-95
	    ( 0.0001 0.0004 0.0018 0.0067 0.0203 0.0492 0.0954 0.8261 )	%  80-100  <25  5  95-98
	    ( 0.0001 0.0006 0.0028 0.0099 0.0278 0.0625 0.1126 0.7837 ))	%  80-100  <25  5  >98
	   (( 0.0001 0.0001 0.0001 0.0001 0.0004 0.002 0.0074 0.9901 )	%  80-100  <25  6  <85
	    ( 0.0001 0.0001 0.0001 0.0004 0.0019 0.0071 0.0213 0.9691 )	%  80-100  <25  6  85-90
	    ( 0.0001 0.0001 0.0002 0.0011 0.0046 0.0149 0.0385 0.9406 )	%  80-100  <25  6  90-95
	    ( 0.0001 0.0001 0.0005 0.0024 0.0087 0.0251 0.0579 0.9053 )	%  80-100  <25  6  95-98
	    ( 0.0001 0.0002 0.0009 0.0038 0.0126 0.0337 0.0723 0.8766 ))	%  80-100  <25  6  >98
	   (( 0.0001 0.0001 0.0001 0.0001 0.0001 0.0006 0.0027 0.9966 )	%  80-100  <25  7  <85
	    ( 0.0001 0.0001 0.0001 0.0001 0.0006 0.0026 0.0092 0.9875 )	%  80-100  <25  7  85-90
	    ( 0.0001 0.0001 0.0001 0.0003 0.0016 0.006 0.0186 0.9734 )	%  80-100  <25  7  90-95
	    ( 0.0001 0.0001 0.0001 0.0008 0.0032 0.0111 0.0306 0.9541 )	%  80-100  <25  7  95-98
	    ( 0.0001 0.0001 0.0002 0.0012 0.005 0.0158 0.0405 0.9372 ))	%  80-100  <25  7  >98
	   (( 0.0001 0.0001 0.0001 0.0001 0.0001 0.0002 0.0009 0.999 )	%  80-100  <25  8  <85
	    ( 0.0001 0.0001 0.0001 0.0001 0.0002 0.0008 0.0035 0.9955 )	%  80-100  <25  8  85-90
	    ( 0.0001 0.0001 0.0001 0.0001 0.0005 0.0021 0.0079 0.9894 )	%  80-100  <25  8  90-95
	    ( 0.0001 0.0001 0.0001 0.0002 0.0011 0.0043 0.0141 0.9803 )	%  80-100  <25  8  95-98
	    ( 0.0001 0.0001 0.0001 0.0004 0.0017 0.0065 0.0198 0.9716 ))	%  80-100  <25  8  >98
	   (( 0.0001 0.0001 0.0001 0.0001 0.0001 0.0001 0.0002 0.9997 )	%  80-100  <25  9  <85
	    ( 0.0001 0.0001 0.0001 0.0001 0.0001 0.0002 0.0011 0.9986 )	%  80-100  <25  9  85-90
	    ( 0.0001 0.0001 0.0001 0.0001 0.0001 0.0007 0.0029 0.9963 )	%  80-100  <25  9  90-95
	    ( 0.0001 0.0001 0.0001 0.0001 0.0003 0.0015 0.0057 0.9925 )	%  80-100  <25  9  95-98
	    ( 0.0001 0.0001 0.0001 0.0001 0.0005 0.0023 0.0084 0.9886 )))	%  80-100  <25  9  >98
	  ((( 0.0058 0.0145 0.0378 0.0787 0.1313 0.1753 0.1874 0.3693 )	%  80-100  25-40  1  <85
	    ( 0.0148 0.0299 0.066 0.117 0.1658 0.1881 0.1709 0.2476 )	%  80-100  25-40  1  85-90
	    ( 0.026 0.0452 0.0897 0.1425 0.1813 0.1845 0.1504 0.1803 )	%  80-100  25-40  1  90-95
	    ( 0.0394 0.0607 0.1104 0.1608 0.1874 0.1749 0.1307 0.1357 )	%  80-100  25-40  1  95-98
	    ( 0.0504 0.0716 0.1235 0.1703 0.1881 0.1663 0.1177 0.112 ))	%  80-100  25-40  1  >98
	   (( 0.0019 0.0059 0.0182 0.0451 0.0896 0.1424 0.1812 0.5158 )	%  80-100  25-40  2  <85
	    ( 0.0054 0.0137 0.0361 0.0761 0.1285 0.1736 0.1877 0.3788 )	%  80-100  25-40  2  85-90
	    ( 0.0103 0.0226 0.0534 0.101 0.153 0.1854 0.1799 0.2943 )	%  80-100  25-40  2  90-95
	    ( 0.0166 0.0325 0.0703 0.122 0.1693 0.1882 0.1674 0.2337 )	%  80-100  25-40  2  95-98
	    ( 0.022 0.04 0.0821 0.1349 0.1774 0.1867 0.1573 0.1997 ))	%  80-100  25-40  2  >98
	   (( 0.0005 0.0021 0.0076 0.0225 0.0533 0.1009 0.1529 0.6602 )	%  80-100  25-40  3  <85
	    ( 0.0017 0.0055 0.0172 0.0432 0.0869 0.1397 0.1799 0.5258 )	%  80-100  25-40  3  85-90
	    ( 0.0036 0.0099 0.0277 0.0625 0.1126 0.1625 0.1877 0.4335 )	%  80-100  25-40  3  90-95
	    ( 0.0061 0.0152 0.0391 0.0807 0.1334 0.1765 0.187 0.3619 )	%  80-100  25-40  3  95-98
	    ( 0.0085 0.0195 0.0476 0.0931 0.1458 0.1827 0.1833 0.3194 ))	%  80-100  25-40  3  >98
	   (( 0.0001 0.0006 0.0028 0.0098 0.0277 0.0623 0.1125 0.7841 )	%  80-100  25-40  4  <85
	    ( 0.0005 0.0019 0.0072 0.0214 0.0512 0.0981 0.1504 0.6693 )	%  80-100  25-40  4  85-90
	    ( 0.0011 0.0037 0.0126 0.0337 0.0723 0.1242 0.1709 0.5815 )	%  80-100  25-40  4  90-95
	    ( 0.002 0.0062 0.019 0.0466 0.0917 0.1444 0.1821 0.508 )	%  80-100  25-40  4  95-98
	    ( 0.0029 0.0083 0.0241 0.0561 0.1046 0.156 0.1863 0.4617 ))	%  80-100  25-40  4  >98
	   (( 0.0001 0.0002 0.0009 0.0037 0.0125 0.0336 0.0722 0.8769 )	%  80-100  25-40  5  <85
	    ( 0.0001 0.0006 0.0026 0.0092 0.0263 0.0601 0.1096 0.7914 )	%  80-100  25-40  5  85-90
	    ( 0.0003 0.0012 0.005 0.0158 0.0405 0.0828 0.1356 0.7188 )	%  80-100  25-40  5  90-95
	    ( 0.0006 0.0022 0.008 0.0235 0.055 0.1031 0.1548 0.653 )	%  80-100  25-40  5  95-98
	    ( 0.0009 0.0031 0.0106 0.0295 0.0654 0.1162 0.1652 0.6092 ))	%  80-100  25-40  5  >98
	   (( 0.0001 0.0001 0.0002 0.0012 0.0049 0.0158 0.0404 0.9374 )	%  80-100  25-40  6  <85
	    ( 0.0001 0.0002 0.0008 0.0035 0.0118 0.0321 0.0697 0.8819 )	%  80-100  25-40  6  85-90
	    ( 0.0001 0.0004 0.0017 0.0065 0.0198 0.0482 0.0939 0.8296 )	%  80-100  25-40  6  90-95
	    ( 0.0001 0.0007 0.003 0.0103 0.0287 0.0642 0.1147 0.7784 )	%  80-100  25-40  6  95-98
	    ( 0.0002 0.001 0.0041 0.0135 0.0357 0.0754 0.1277 0.7424 ))	%  80-100  25-40  6  >98
	   (( 0.0001 0.0001 0.0001 0.0004 0.0017 0.0065 0.0197 0.9717 )	%  80-100  25-40  7  <85
	    ( 0.0001 0.0001 0.0002 0.0011 0.0046 0.0149 0.0387 0.9404 )	%  80-100  25-40  7  85-90
	    ( 0.0001 0.0001 0.0005 0.0023 0.0084 0.0244 0.0567 0.9075 )	%  80-100  25-40  7  90-95
	    ( 0.0001 0.0002 0.0009 0.0039 0.0131 0.0348 0.0741 0.8729 )	%  80-100  25-40  7  95-98
	    ( 0.0001 0.0003 0.0014 0.0054 0.017 0.0427 0.0861 0.8471 ))	%  80-100  25-40  7  >98
	   (( 0.0001 0.0001 0.0001 0.0001 0.0005 0.0023 0.0084 0.9887 )	%  80-100  25-40  8  <85
	    ( 0.0001 0.0001 0.0001 0.0003 0.0016 0.0061 0.0187 0.9733 )	%  80-100  25-40  8  85-90
	    ( 0.0001 0.0001 0.0001 0.0007 0.0031 0.0108 0.0298 0.9554 )	%  80-100  25-40  8  90-95
	    ( 0.0001 0.0001 0.0003 0.0013 0.0052 0.0165 0.0418 0.9349 )	%  80-100  25-40  8  95-98
	    ( 0.0001 0.0001 0.0004 0.0019 0.007 0.0211 0.0507 0.9188 ))	%  80-100  25-40  8  >98
	   (( 0.0001 0.0001 0.0001 0.0001 0.0001 0.0007 0.0031 0.996 )	%  80-100  25-40  9  <85
	    ( 0.0001 0.0001 0.0001 0.0001 0.0005 0.0021 0.0079 0.9894 )	%  80-100  25-40  9  85-90
	    ( 0.0001 0.0001 0.0001 0.0002 0.001 0.0042 0.0137 0.9809 )	%  80-100  25-40  9  90-95
	    ( 0.0001 0.0001 0.0001 0.0004 0.0018 0.0068 0.0205 0.9704 )	%  80-100  25-40  9  95-98
	    ( 0.0001 0.0001 0.0001 0.0006 0.0025 0.0091 0.026 0.9617 )))	%  80-100  25-40  9  >98
	  ((( 0.0254 0.0445 0.0886 0.1415 0.1808 0.1849 0.1514 0.1829 )	%  80-100  41-50  1  <85
	    ( 0.0458 0.0672 0.1183 0.1668 0.1882 0.1699 0.1229 0.1209 )	%  80-100  41-50  1  85-90
	    ( 0.0656 0.0852 0.138 0.179 0.1859 0.1546 0.1029 0.0889 )	%  80-100  41-50  1  90-95
	    ( 0.0857 0.1007 0.1527 0.1853 0.1801 0.1401 0.0873 0.0682 )	%  80-100  41-50  1  95-98
	    ( 0.1005 0.1106 0.161 0.1875 0.1748 0.1305 0.0779 0.0572 ))	%  80-100  41-50  1  >98
	   (( 0.01 0.0221 0.0526 0.0999 0.152 0.1851 0.1804 0.2978 )	%  80-100  41-50  2  <85
	    ( 0.0197 0.0369 0.0774 0.1299 0.1744 0.1876 0.1615 0.2127 )	%  80-100  41-50  2  85-90
	    ( 0.0299 0.0499 0.0963 0.1488 0.1839 0.182 0.1442 0.1649 )	%  80-100  41-50  2  90-95
	    ( 0.0409 0.0621 0.1122 0.1622 0.1877 0.1738 0.1289 0.1321 )	%  80-100  41-50  2  95-98
	    ( 0.0493 0.0706 0.1222 0.1695 0.1882 0.1672 0.1189 0.1141 ))	%  80-100  41-50  2  >98
	   (( 0.0035 0.0096 0.0272 0.0616 0.1115 0.1616 0.1876 0.4374 )	%  80-100  41-50  3  <85
	    ( 0.0075 0.0177 0.0441 0.0882 0.141 0.1806 0.185 0.3359 )	%  80-100  41-50  3  85-90
	    ( 0.012 0.0255 0.0586 0.1078 0.1587 0.187 0.1764 0.2739 )	%  80-100  41-50  3  90-95
	    ( 0.0173 0.0335 0.072 0.1238 0.1706 0.1881 0.1661 0.2287 )	%  80-100  41-50  3  95-98
	    ( 0.0214 0.0393 0.081 0.1337 0.1767 0.1869 0.1583 0.2028 ))	%  80-100  41-50  3  >98
	   (( 0.0011 0.0036 0.0123 0.0331 0.0713 0.1231 0.1701 0.5854 )	%  80-100  41-50  4  <85
	    ( 0.0025 0.0074 0.022 0.0522 0.0995 0.1516 0.185 0.4799 )	%  80-100  41-50  4  85-90
	    ( 0.0043 0.0114 0.0311 0.0681 0.1194 0.1676 0.1882 0.4099 )	%  80-100  41-50  4  90-95
	    ( 0.0064 0.0157 0.0402 0.0824 0.1352 0.1775 0.1866 0.3558 )	%  80-100  41-50  4  95-98
	    ( 0.0082 0.019 0.0468 0.0919 0.1447 0.1822 0.1838 0.3233 ))	%  80-100  41-50  4  >98
	   (( 0.0003 0.0012 0.0048 0.0155 0.0398 0.0818 0.1345 0.7221 )	%  80-100  41-50  5  <85
	    ( 0.0007 0.0027 0.0095 0.027 0.0612 0.111 0.1613 0.6267 )	%  80-100  41-50  5  85-90
	    ( 0.0013 0.0044 0.0144 0.0376 0.0784 0.1309 0.1751 0.5579 )	%  80-100  41-50  5  90-95
	    ( 0.0021 0.0064 0.0196 0.0479 0.0935 0.1461 0.1829 0.5014 )	%  80-100  41-50  5  95-98
	    ( 0.0028 0.0081 0.0236 0.0552 0.1033 0.155 0.186 0.4661 ))	%  80-100  41-50  5  >98
	   (( 0.0001 0.0003 0.0017 0.0063 0.0194 0.0474 0.0928 0.8321 )	%  80-100  41-50  6  <85
	    ( 0.0002 0.0009 0.0036 0.0122 0.0328 0.0709 0.1226 0.7569 )	%  80-100  41-50  6  85-90
	    ( 0.0004 0.0015 0.0058 0.0181 0.0449 0.0892 0.1421 0.6981 )	%  80-100  41-50  6  90-95
	    ( 0.0006 0.0023 0.0083 0.0242 0.0564 0.1049 0.1563 0.6469 )	%  80-100  41-50  6  95-98
	    ( 0.0008 0.003 0.0104 0.0289 0.0644 0.1149 0.1643 0.6134 ))	%  80-100  41-50  6  >98
	   (( 0.0001 0.0001 0.0005 0.0023 0.0082 0.0239 0.0558 0.9092 )	%  80-100  41-50  7  <85
	    ( 0.0001 0.0002 0.0012 0.0048 0.0153 0.0395 0.0813 0.8576 )	%  80-100  41-50  7  85-90
	    ( 0.0001 0.0004 0.002 0.0076 0.0224 0.053 0.1005 0.8139 )	%  80-100  41-50  7  90-95
	    ( 0.0002 0.0007 0.0031 0.0107 0.0296 0.0657 0.1165 0.7735 )	%  80-100  41-50  7  95-98
	    ( 0.0002 0.001 0.004 0.0132 0.035 0.0743 0.1265 0.7459 ))	%  80-100  41-50  7  >98
	   (( 0.0001 0.0001 0.0001 0.0007 0.003 0.0105 0.0293 0.9563 )	%  80-100  41-50  8  <85
	    ( 0.0001 0.0001 0.0003 0.0016 0.0063 0.0192 0.047 0.9255 )	%  80-100  41-50  8  85-90
	    ( 0.0001 0.0001 0.0006 0.0028 0.0098 0.0275 0.0621 0.8972 )	%  80-100  41-50  8  90-95
	    ( 0.0001 0.0002 0.001 0.0041 0.0136 0.0359 0.0758 0.8694 )	%  80-100  41-50  8  95-98
	    ( 0.0001 0.0003 0.0013 0.0052 0.0166 0.0419 0.085 0.8496 ))	%  80-100  41-50  8  >98
	   (( 0.0001 0.0001 0.0001 0.0002 0.001 0.0041 0.0134 0.9814 )	%  80-100  41-50  9  <85
	    ( 0.0001 0.0001 0.0001 0.0005 0.0022 0.0081 0.0237 0.9653 )	%  80-100  41-50  9  85-90
	    ( 0.0001 0.0001 0.0002 0.0009 0.0037 0.0124 0.0334 0.9494 )	%  80-100  41-50  9  90-95
	    ( 0.0001 0.0001 0.0003 0.0014 0.0054 0.0171 0.043 0.9328 )	%  80-100  41-50  9  95-98
	    ( 0.0001 0.0001 0.0004 0.0018 0.0068 0.0206 0.0498 0.9205 )))	%  80-100  41-50  9  >98
	  ((( 0.0673 0.0865 0.1394 0.1797 0.1855 0.1533 0.1014 0.0868 )	%  80-100  51-60  1  <85
	    ( 0.0975 0.1087 0.1594 0.1872 0.1759 0.1324 0.0797 0.0593 )	%  80-100  51-60  1  85-90
	    ( 0.1225 0.1237 0.1705 0.1881 0.1661 0.1174 0.0665 0.0451 )	%  80-100  51-60  1  90-95
	    ( 0.1456 0.1356 0.1777 0.1865 0.1567 0.1054 0.0567 0.0358 )	%  80-100  51-60  1  95-98
	    ( 0.1614 0.1427 0.1814 0.1845 0.1502 0.0979 0.0511 0.0309 ))	%  80-100  51-60  1  >98
	   (( 0.0307 0.051 0.0977 0.1501 0.1844 0.1814 0.1429 0.1618 )	%  80-100  51-60  2  <85
	    ( 0.0475 0.0689 0.1203 0.1682 0.1882 0.1686 0.1209 0.1175 )	%  80-100  51-60  2  85-90
	    ( 0.0623 0.0824 0.1351 0.1775 0.1866 0.1571 0.1058 0.0932 )	%  80-100  51-60  2  90-95
	    ( 0.0765 0.0938 0.1465 0.183 0.183 0.1466 0.0939 0.0766 )	%  80-100  51-60  2  95-98
	    ( 0.0866 0.1012 0.1532 0.1855 0.1798 0.1396 0.0867 0.0675 ))	%  80-100  51-60  2  >98
	   (( 0.0124 0.0262 0.0598 0.1093 0.1599 0.1873 0.1756 0.2696 )	%  80-100  51-60  3  <85
	    ( 0.0205 0.0381 0.0792 0.1318 0.1756 0.1873 0.1599 0.2077 )	%  80-100  51-60  3  85-90
	    ( 0.0281 0.0478 0.0934 0.1461 0.1828 0.1832 0.147 0.1716 )	%  80-100  51-60  3  90-95
	    ( 0.0357 0.0567 0.1053 0.1566 0.1865 0.1778 0.1357 0.1457 )	%  80-100  51-60  3  95-98
	    ( 0.0413 0.0626 0.1128 0.1627 0.1878 0.1735 0.1283 0.131 ))	%  80-100  51-60  3  >98
	   (( 0.0044 0.0117 0.0319 0.0694 0.1209 0.1686 0.1882 0.4049 )	%  80-100  51-60  4  <85
	    ( 0.0078 0.0183 0.0454 0.0901 0.1429 0.1814 0.1844 0.3296 )	%  80-100  51-60  4  85-90
	    ( 0.0112 0.0242 0.0563 0.1048 0.1562 0.1864 0.178 0.2828 )	%  80-100  51-60  4  90-95
	    ( 0.0148 0.0298 0.066 0.1169 0.1657 0.1881 0.1709 0.2478 )	%  80-100  51-60  4  95-98
	    ( 0.0175 0.0338 0.0725 0.1244 0.171 0.1881 0.1656 0.2271 ))	%  80-100  51-60  4  >98
	   (( 0.0014 0.0046 0.0148 0.0384 0.0797 0.1323 0.1759 0.5528 )	%  80-100  51-60  5  <85
	    ( 0.0026 0.0077 0.0227 0.0537 0.1014 0.1533 0.1855 0.473 )	%  80-100  51-60  5  85-90
	    ( 0.004 0.0107 0.0296 0.0656 0.1164 0.1654 0.1881 0.4202 )	%  80-100  51-60  5  90-95
	    ( 0.0054 0.0137 0.0361 0.0761 0.1284 0.1736 0.1877 0.379 )	%  80-100  51-60  5  95-98
	    ( 0.0065 0.0159 0.0406 0.083 0.1358 0.1779 0.1865 0.3538 ))	%  80-100  51-60  5  >98
	   (( 0.0004 0.0016 0.006 0.0186 0.0458 0.0906 0.1434 0.6936 )	%  80-100  51-60  6  <85
	    ( 0.0008 0.0028 0.0099 0.0279 0.0627 0.113 0.1628 0.6201 )	%  80-100  51-60  6  85-90
	    ( 0.0012 0.0041 0.0136 0.0358 0.0757 0.128 0.1733 0.5683 )	%  80-100  51-60  6  90-95
	    ( 0.0017 0.0055 0.0172 0.0432 0.0868 0.1397 0.1799 0.526 )	%  80-100  51-60  6  95-98
	    ( 0.0021 0.0065 0.0198 0.0483 0.0941 0.1467 0.1831 0.4993 ))	%  80-100  51-60  6  >98
	   (( 0.0001 0.0005 0.0021 0.0078 0.023 0.0541 0.102 0.8104 )	%  80-100  51-60  7  <85
	    ( 0.0002 0.0009 0.0038 0.0126 0.0339 0.0726 0.1246 0.7514 )	%  80-100  51-60  7  85-90
	    ( 0.0003 0.0014 0.0054 0.0171 0.0429 0.0864 0.1393 0.7073 )	%  80-100  51-60  7  90-95
	    ( 0.0005 0.0019 0.0072 0.0214 0.0512 0.098 0.1503 0.6695 )	%  80-100  51-60  7  95-98
	    ( 0.0006 0.0023 0.0085 0.0245 0.0568 0.1055 0.1568 0.6449 ))	%  80-100  51-60  7  >98
	   (( 0.0001 0.0001 0.0007 0.0029 0.0101 0.0282 0.0632 0.8949 )	%  80-100  51-60  8  <85
	    ( 0.0001 0.0003 0.0013 0.005 0.0159 0.0407 0.0831 0.8537 )	%  80-100  51-60  8  85-90
	    ( 0.0001 0.0004 0.0019 0.0071 0.0212 0.0509 0.0976 0.8209 )	%  80-100  51-60  8  90-95
	    ( 0.0001 0.0006 0.0026 0.0092 0.0263 0.06 0.1096 0.7916 )	%  80-100  51-60  8  95-98
	    ( 0.0002 0.0007 0.0031 0.0108 0.0299 0.0662 0.1171 0.7719 ))	%  80-100  51-60  8  >98
	   (( 0.0001 0.0001 0.0002 0.0009 0.0038 0.0128 0.0342 0.948 )	%  80-100  51-60  9  <85
	    ( 0.0001 0.0001 0.0004 0.0017 0.0065 0.0199 0.0484 0.923 )	%  80-100  51-60  9  85-90
	    ( 0.0001 0.0001 0.0006 0.0026 0.0091 0.0261 0.0597 0.9018 )	%  80-100  51-60  9  90-95
	    ( 0.0001 0.0002 0.0008 0.0035 0.0118 0.032 0.0697 0.882 )	%  80-100  51-60  9  95-98
	    ( 0.0001 0.0002 0.001 0.0042 0.0138 0.0362 0.0763 0.8683 )))	%  80-100  51-60  9  >98
	  ((( 0.1754 0.1485 0.1838 0.1822 0.1445 0.0918 0.0466 0.0272 )	%  80-100  61-70  1  <85
	    ( 0.2124 0.1613 0.1875 0.1745 0.13 0.0775 0.037 0.0198 )	%  80-100  61-70  1  85-90
	    ( 0.2393 0.1688 0.1882 0.1679 0.1199 0.0686 0.0314 0.0158 )	%  80-100  61-70  1  90-95
	    ( 0.2622 0.1741 0.1876 0.1619 0.1118 0.0618 0.0274 0.0132 )	%  80-100  61-70  1  95-98
	    ( 0.277 0.177 0.1868 0.1578 0.1068 0.0578 0.025 0.0117 ))	%  80-100  61-70  1  >98
	   (( 0.0957 0.1075 0.1585 0.187 0.1766 0.1335 0.0808 0.0605 )	%  80-100  61-70  2  <85
	    ( 0.1207 0.1227 0.1698 0.1882 0.1669 0.1185 0.0673 0.0459 )	%  80-100  61-70  2  85-90
	    ( 0.1397 0.1327 0.1761 0.1871 0.1591 0.1083 0.059 0.0379 )	%  80-100  61-70  2  90-95
	    ( 0.1563 0.1405 0.1803 0.1852 0.1523 0.1003 0.0528 0.0324 )	%  80-100  61-70  2  95-98
	    ( 0.1673 0.1452 0.1825 0.1836 0.1478 0.0953 0.0492 0.0292 ))	%  80-100  61-70  2  >98
	   (( 0.0465 0.0679 0.1191 0.1673 0.1882 0.1694 0.1221 0.1195 )	%  80-100  61-70  3  <85
	    ( 0.0612 0.0814 0.1341 0.1769 0.1868 0.1579 0.1068 0.0947 )	%  80-100  61-70  3  85-90
	    ( 0.0728 0.091 0.1438 0.1818 0.1841 0.1492 0.0968 0.0805 )	%  80-100  61-70  3  90-95
	    ( 0.0833 0.0989 0.1511 0.1848 0.1809 0.1418 0.089 0.0703 )	%  80-100  61-70  3  95-98
	    ( 0.0904 0.1039 0.1555 0.1862 0.1785 0.137 0.0842 0.0644 ))	%  80-100  61-70  3  >98
	   (( 0.02 0.0374 0.0781 0.1306 0.1749 0.1874 0.1608 0.2107 )	%  80-100  61-70  4  <85
	    ( 0.0275 0.0471 0.0924 0.1451 0.1824 0.1836 0.1479 0.1739 )	%  80-100  61-70  4  85-90
	    ( 0.0337 0.0544 0.1023 0.1541 0.1858 0.1793 0.1385 0.1518 )	%  80-100  61-70  4  90-95
	    ( 0.0395 0.0607 0.1104 0.1608 0.1874 0.1749 0.1307 0.1356 )	%  80-100  61-70  4  95-98
	    ( 0.0435 0.0648 0.1155 0.1647 0.188 0.1718 0.1257 0.126 ))	%  80-100  61-70  4  >98
	   (( 0.0076 0.018 0.0447 0.089 0.1418 0.1809 0.1848 0.3333 )	%  80-100  61-70  5  <85
	    ( 0.011 0.0238 0.0555 0.1038 0.1554 0.1862 0.1785 0.2859 )	%  80-100  61-70  5  85-90
	    ( 0.0138 0.0284 0.0635 0.1139 0.1635 0.1879 0.1728 0.2561 )	%  80-100  61-70  5  90-95
	    ( 0.0166 0.0325 0.0704 0.122 0.1694 0.1882 0.1674 0.2336 )	%  80-100  61-70  5  95-98
	    ( 0.0185 0.0353 0.0749 0.1271 0.1727 0.1879 0.1636 0.22 ))	%  80-100  61-70  5  >98
	   (( 0.0026 0.0075 0.0223 0.0528 0.1002 0.1523 0.1852 0.4771 )	%  80-100  61-70  6  <85
	    ( 0.0039 0.0105 0.0291 0.0648 0.1154 0.1646 0.188 0.4238 )	%  80-100  61-70  6  85-90
	    ( 0.005 0.0129 0.0344 0.0735 0.1255 0.1717 0.188 0.389 )	%  80-100  61-70  6  90-95
	    ( 0.0062 0.0152 0.0391 0.0808 0.1335 0.1766 0.187 0.3617 )	%  80-100  61-70  6  95-98
	    ( 0.007 0.0168 0.0423 0.0855 0.1384 0.1792 0.1858 0.345 ))	%  80-100  61-70  6  >98
	   (( 0.0008 0.0027 0.0097 0.0274 0.0618 0.1118 0.1619 0.6239 )	%  80-100  61-70  7  <85
	    ( 0.0012 0.004 0.0133 0.0352 0.0748 0.127 0.1726 0.5719 )	%  80-100  61-70  7  85-90
	    ( 0.0016 0.0051 0.0162 0.0413 0.084 0.1369 0.1784 0.5364 )	%  80-100  61-70  7  90-95
	    ( 0.002 0.0062 0.019 0.0466 0.0918 0.1445 0.1822 0.5078 )	%  80-100  61-70  7  95-98
	    ( 0.0023 0.0069 0.0209 0.0502 0.0967 0.1491 0.1841 0.4899 ))	%  80-100  61-70  7  >98
	   (( 0.0002 0.0009 0.0037 0.0124 0.0332 0.0716 0.1234 0.7546 )	%  80-100  61-70  8  <85
	    ( 0.0003 0.0013 0.0053 0.0167 0.0422 0.0854 0.1383 0.7104 )	%  80-100  61-70  8  85-90
	    ( 0.0004 0.0018 0.0067 0.0203 0.0491 0.0952 0.1477 0.6789 )	%  80-100  61-70  8  90-95
	    ( 0.0006 0.0022 0.008 0.0235 0.055 0.1031 0.1548 0.6528 )	%  80-100  61-70  8  95-98
	    ( 0.0007 0.0025 0.009 0.0257 0.0589 0.1082 0.159 0.636 ))	%  80-100  61-70  8  >98
	   (( 0.0001 0.0002 0.0012 0.0049 0.0156 0.04 0.0821 0.856 )	%  80-100  61-70  9  <85
	    ( 0.0001 0.0004 0.0018 0.0069 0.0208 0.0501 0.0966 0.8232 )	%  80-100  61-70  9  85-90
	    ( 0.0001 0.0005 0.0024 0.0087 0.025 0.0577 0.1066 0.799 )	%  80-100  61-70  9  90-95
	    ( 0.0001 0.0007 0.003 0.0103 0.0288 0.0642 0.1147 0.7782 )	%  80-100  61-70  9  95-98
	    ( 0.0002 0.0008 0.0034 0.0115 0.0313 0.0685 0.1198 0.7646 )))	%  80-100  61-70  9  >98
	  ((( 0.4925 0.1838 0.1484 0.0959 0.0496 0.0206 0.0068 0.0023 )	%  80-100  >70  1  <85
	    ( 0.507 0.1823 0.1447 0.092 0.0468 0.0191 0.0062 0.002 )	%  80-100  >70  1  85-90
